	0	1	2	3	4	5	6	7	8	9	10	11	12	13	14	15	16	17	18	19	20	21	22	23	24	25	26	27	28	29	30	31	32	33	34	35	36	37	38	39	40	41	42	43	44	45	46	47	48	49	50	51	52	53	54	55	56	57	58	59	60	61	62	63	64	65	66	67	68	69	70	71	72	73	74	75	76	77	78	79	80	81	82	83	84	85	86	87	88	89	90	91	92	93	94	95	96	97	98	99	100	101	102	103	104	105	106	107	108	109	110	111	112	113	114	115	116	117	118	119	120	121	122	123	124	125	126	127	128	129	130	131	132
HepG2_act_chr1	-0.00347069144601	-0.00932816600308	-0.00108801596527	-0.00254311437297	-0.000490025352097	-0.0112317134763	-0.00235420342606	-0.00705266005271	-0.0126037488953	0.0079120175007	0.00599513312674	0.003501995922	-0.0031287505644	-0.00442177835975	0.00179280275553	-0.00734718275709	-0.00557832872084	-0.00601992313073	-0.00272861456943	-0.00536422611468	-0.00127964313825	-0.00208257908136	-0.00280733202825	-0.000442342888782	-0.00141441071111	0.00218737678827	-0.00926763334154	-0.00584009306742	-0.008496793977	-0.00104908427538	-0.00226393562204	0.00298957498908	0.00605517393265	0.00261916040257	0.00471345142534	-0.00422449415263	-0.000707261834576	0.000825339985935	0.00135015774353	-0.00387875054127	0.000239104397336	-0.00236903116865	0.00501996402672	-0.00435906968029	-0.00634222818869	-0.00569484488583	-0.00439722072628	-0.00619066936212	-0.00242858078715	0.00228164895762	0.00525425480056	0.00561372890571	-0.00517732322995	0.00183887737328	-0.00272829907259	0.0034822369036	-0.0079850707724	0.00132985816732	0.00698006101658	0.00822566120985	0.00509028351516	0.0147606713613	0.00671848813876	0.0108899234886	0.0110195924925	0.014208898893	0.0119824352686	0.00513658040852	0.00876789192918	0.00959155244892	0.0130383085655	0.0169788996146	0.00908376538532	0.0072366036909	-0.000609295849498	0.000742728403311	-0.00766612691086	0.0059399727631	0.00237449769246	-0.0185503380553	-0.00970723180879	-0.00153283690705	-0.00722854261307	-0.00770854272236	-0.000991850637641	-0.00220256058359	0.00518169293165	-0.00863639071115	-0.000990343465689	-0.00281008426705	-0.00461724527126	0.00342051680743	8.81795363635e-05	-0.0025028469639	-0.00284862232511	-0.00585343162338	0.00809867162742	-0.00157307292511	0.00574641620359	0.00724396683173	-0.000976214893944	0.00203102147669	-0.0014713751934	0.00463175449919	0.00380167603534	-0.00182813980475	0.000381323364344	0.00618395255049	-0.00481542808967	0.00712791803139	-0.00255381872343	-0.00598395209056	-0.0013941434664	-0.00952000331521	-0.00340123851361	-0.00224888112775	-0.00271894308498	-0.0127528452526	0.000469709011106	-0.000768049478876	0.00200217813275	-0.00386351213953	-0.00190034761066	-0.00522967342678	-0.00425937242578	-0.00385168494519	-0.0101661919993	0.00139621457132	-0.0183552360845	-0.00390292313904	-0.00217289440406	0.00217836136147	-0.00633295572091
HepG2_act_chr10	-0.00229671066089	-0.00812719059916	-0.00367089568792	-0.00176730339868	0.00195757882959	-0.01398883471	-0.0055278962884	-0.00776695947171	-0.0142253949965	0.00882898840992	0.00405987296683	-3.6700172212e-05	-0.00793127310217	-0.00391895320581	0.00280811989974	-0.00865959036069	-0.00424460337463	-0.00630740339592	0.00041020070577	-0.00621034124432	-0.00380678396181	-0.00132838613682	-0.00471742889355	0.00046076517869	-0.00217893234226	0.00150743212148	-0.00986280668909	-0.0069351640672	-0.00596958425718	-0.00218424943442	-0.00236187473826	0.000779492072984	0.00366093551744	0.00531266984768	0.00626172165974	-0.00763734510982	-0.000784516688749	-0.00173810977889	-0.000618075942212	-0.00295912992577	0.00208510405283	-0.00226002025473	0.00495375048609	-0.00324106530934	-0.00755845580411	-0.00706887138837	-0.0074948399923	-0.00671206745814	-0.00240670815739	-0.000251895637106	0.00171432590722	0.00541875040902	-0.00626239956861	0.00148026898454	0.00146515866851	0.0011836798098	-0.00977438592394	0.000104399266634	0.0084335186936	0.0120793471605	0.00365392977067	0.0179013409557	0.00856588204988	0.0134444050266	0.0114317967573	0.0136884419611	0.013428202666	0.00407198705751	0.0053011436983	0.011151443327	0.0124767332222	0.0160221084918	0.0089274854602	0.00327952293326	0.00139200802165	0.00296831128753	-0.00557015555572	0.0053335825957	0.00263819791642	-0.0161025498559	-0.00549444093257	-0.00177624337035	-0.00675967341763	-0.00988760030929	-0.00106569255352	-0.00236957508403	0.0017181908873	-0.00796784425072	-0.00104929811214	-0.000189680807318	-0.00155144660573	0.00275549783604	0.000511592703729	-0.00262021425537	-0.00121759980385	-0.00544817695011	0.00782942201126	-0.00178369438601	0.00536452013111	0.00900178784505	0.00165421263266	0.00423907221622	-0.000503451544959	0.00104648547629	0.00156148790408	-0.00186318381365	0.000758199185346	0.00644506995979	-0.00555953134044	0.00716969619451	-0.00262161026261	-0.00634787947668	-7.73226787996e-05	-0.0103279274249	-0.00585912280034	-0.00522736092889	-0.00338077488966	-0.0118442780437	-0.00361789691697	0.000286178199965	0.00505938998081	-0.00406048492526	-0.00147714732879	-0.00419234182227	-0.00368429704873	-0.00393140017716	-0.00910498813441	0.00136807772623	-0.0151366851642	-0.0012301196238	-0.0060614761898	0.00504986766653	-0.00708546612455
HepG2_act_chr11	-0.00295865644302	-0.00751155154818	-0.00300082850969	-0.00212589272438	0.000607395186104	-0.0115624707645	-0.00445165195598	-0.00696957727179	-0.0131262400879	0.00862388043342	0.00528710942886	0.00376862103894	-0.00558803425462	-0.00527638117521	0.000466479007736	-0.00763188652022	-0.00290617002702	-0.00557481602106	-0.000630763348968	-0.00636738503446	-0.00260529550756	-0.00204071860305	-0.00449369391136	-0.000453939526224	-0.0027485449216	0.00264935189264	-0.00898435650533	-0.00794623391756	-0.00606805072431	-0.00108135971546	-0.000227551052129	0.00289643360375	0.00667198479982	0.00487373747918	0.00533925455928	-0.00822562091621	-0.000291094378579	-3.23161742182e-05	-0.000560754782308	-0.00686220012927	-0.00355528758948	-0.00402939332379	0.00319623044804	-0.0035426166032	-0.00599335274158	-0.00710121911102	-0.00708750789979	-0.00690623841219	-0.00176544525256	-0.000327747803376	0.0043234003245	0.00559179618893	-0.00733671151284	4.57814061761e-05	-0.000663952991774	0.00218331332949	-0.0101193804838	0.000324387614965	0.00962788895897	0.0110983111209	0.00246122783183	0.0173314133223	0.00747614148739	0.0142415406291	0.0107134381587	0.0133430032907	0.011097990298	0.00437237718171	0.00333513652177	0.0110862659878	0.0119624025412	0.0164297848311	0.0113491802916	0.00665799380729	0.00174176946773	0.00101933125521	-0.00520122772151	0.00734479322726	0.00207053214576	-0.017678945947	-0.00794503694685	-0.00392863065362	-0.00517349973667	-0.00917599451926	0.000781849093322	-0.0011337283103	0.00242557915816	-0.00525220337137	-0.00329721465908	0.000249185217207	-0.00286784870497	0.00439233719174	-3.8275253222e-05	-0.00256525696264	-0.00259741361927	-0.004392160446	0.00837559509861	-0.00154235379842	0.00553382477319	0.00790604480412	-1.86595594714e-05	0.00343866479256	0.000392023602634	0.00212947603074	0.00226593595158	-0.00247278466088	0.000745163160915	0.00233828326228	-0.00577017219988	0.00813259024509	-0.00163321663561	-0.00825220890023	-0.00292096655853	-0.010041770818	-0.003661121349	-0.00348851693271	-0.00390150248375	-0.0132721324628	-0.00216791665758	0.00112065120306	0.00450450571567	-0.00355173843194	-0.00619883288468	-0.00508587396882	-0.00209726389974	-0.00179688068317	-0.00716526248004	0.00144979679062	-0.0149004111003	-0.00274704876985	-0.00399975608959	0.00346786187656	-0.00868503042507
HepG2_act_chr12	-0.00327309472125	-0.00935673532528	-0.000743608152487	-0.0017359232243	0.00169453948165	-0.0104847226591	-0.00502466707955	-0.00594940287137	-0.0123874177926	0.0095948413297	0.00534224228639	0.00274709417487	-0.00480586113019	-0.00392241254417	0.00010527051297	-0.00688779623759	-0.00453083466673	-0.00687578599524	-0.00155966081142	-0.00451481651512	-0.00117601938994	0.00202621237043	-0.00427707109572	-0.000712113617673	-0.00191164056034	0.000757767444465	-0.00934058613326	-0.0060904431753	-0.00493317790262	-0.000820643851129	-0.00232185692806	0.00239674955016	0.00396767651261	0.00489873793635	0.00685103137518	-0.00862359868021	0.00178239785918	0.000449445174247	0.000699629953271	-0.00536245084879	0.00114704110489	-0.00114074734979	0.00430828546822	-0.00389444855619	-0.00625648624128	-0.00522667377183	-0.0061715035821	-0.00572869897654	-0.00121961494363	-0.000144886093411	0.00376117184073	0.00557579009876	-0.00773669216681	0.00287957826456	0.000309237729499	0.00124931382821	-0.0089824609966	-0.00241268684785	0.00894499526859	0.0123528534355	0.00358474537567	0.0168936076856	0.00902139218251	0.0127723657643	0.0110411647697	0.0137396136698	0.0137200396898	0.00362184987032	0.00629631937372	0.0113999559625	0.0113081425397	0.0170928787211	0.0100146197713	0.00446443767838	0.00133801574664	0.00135677672416	-0.010272721087	0.00741290743537	0.000865676512177	-0.0155921868112	-0.0062225445984	-0.00142838973707	-0.00738197758736	-0.0097199050634	-0.00154473710166	-0.00225863767133	0.00246093434317	-0.00414267910251	-0.000253677255433	-0.000297592909357	-0.00199527684744	0.00195954208172	0.00337092889632	-0.00348818813614	-0.00368261968746	-0.00639434251982	0.00830964286952	-0.00221371960055	0.00384470661761	0.00593355945741	-0.000873757904911	0.0033263142316	-0.000245129363179	0.0016025756562	0.00191359504772	-0.0044601047319	-0.000253215139369	0.00546063691967	-0.0075629451035	0.00704694076898	-0.00601376516365	-0.00764760385071	-0.00181556103944	-0.0102859837967	-0.00396510862412	-0.00359312553191	-0.00315256127013	-0.0129965726576	-0.0030983737532	-0.000189377828624	0.00285126971381	-0.00495048623327	-0.00452912181625	-0.00438347607143	-0.00175663640202	-0.00486302918946	-0.0113377923497	0.000825144093722	-0.0173858652174	-0.00404986652875	-0.00413912027603	0.00273335654383	-0.00691838214368
HepG2_act_chr13	-0.00361424790601	-0.00827057760339	-0.00145110538947	-0.00238135711074	0.00134968222491	-0.0121406525926	-0.00430222498594	-0.00757667489547	-0.0135649138273	0.00911915429502	0.00311628742352	0.00382102677342	-0.00552550667217	-0.006099616775	0.000993749303872	-0.00855373369362	-0.00209517681943	-0.00815907779022	-0.000887268401204	-0.00672698197129	-0.00341023164803	-6.9400003396e-05	-0.00505520668694	-0.00125341516225	-0.00361308868036	0.000296263780581	-0.00975894450451	-0.0073266286097	-0.00544392745476	-0.00215826481947	-0.00141404192696	0.00246454673657	0.00569958054263	0.00385085309134	0.00411656014403	-0.00614331335488	0.000209477632045	0.000716626878403	0.00180928176364	-0.00364157938784	-0.000137344435886	-0.00164425924819	0.00490303225063	-0.00435968088692	-0.00463001359342	-0.00663468279768	-0.0066622568283	-0.00597271625694	-0.00150351018062	0.00158092039947	0.00365939768101	0.00624557378096	-0.00905806364334	0.00217531049989	6.58003552686e-05	0.00189173804335	-0.00983143239165	-0.00230903541507	0.0062210565852	0.0101795891864	0.00246760691835	0.0169085281693	0.00888594348117	0.0147832094814	0.011607022421	0.0118403839196	0.0133222659198	0.00393925737503	0.00446665603923	0.01172905267	0.012259582193	0.0144693080997	0.010342075382	0.00555021121861	0.000949500047367	0.000844992611818	-0.00816620362546	0.00626596312738	0.00291113147172	-0.0164528764067	-0.00684331620304	-0.0028244619817	-0.00700363885088	-0.00960090612993	-0.000221964300933	-0.000529707882877	0.00294615618207	-0.00539872530676	-0.00133901156032	0.000837382495378	-0.00296527247409	0.00187041008357	0.00236937743956	-0.00195502023892	-0.00340627337146	-0.00449833805581	0.00984675310687	-0.00218829102247	0.00547248427588	0.00620009765523	0.000150157580641	0.00443649890545	-0.00019057180047	0.00197301296954	0.00364282752346	-0.00109430291758	0.000246475402373	0.00509172773651	-0.00534593064333	0.00646202828937	-0.00474693795293	-0.00663647807288	-0.00175055467103	-0.00903421711142	-0.0040686184874	-0.00497371994853	-0.00332456159997	-0.012854252178	-0.00164010226121	-8.95416088764e-05	0.00338734887572	-0.00263003996045	-0.00247461485598	-0.00387924699148	-0.00286193463663	-0.00262089889599	-0.00924972199957	5.7172092906e-05	-0.0168485114234	-0.00327524056235	-0.00578707001712	0.00319148546803	-0.00742278707078
HepG2_act_chr14	-0.00362641831882	-0.00876325595596	-0.00166142948059	-0.00229756257708	0.00167168754231	-0.0112402080339	-0.00266266380414	-0.00680663445096	-0.0128884525794	0.00785198956745	0.00316535299603	0.00280382657774	-0.00608891776475	-0.00594262563317	0.00279154384699	-0.00774665139112	-0.00202229910866	-0.00609230311736	-0.000750455089696	-0.00591366950447	-0.000988404917097	0.000429522707105	-0.00407149125079	-0.00133127606123	-0.00100292600777	0.00140056790721	-0.0124374530464	-0.00531378090494	-0.00705630698099	-0.00474620622986	-0.00114114525394	0.00197143466438	0.00607080044508	0.00405027130793	0.00612591213854	-0.00728435163315	4.51658995116e-05	0.00128167785333	0.00105040365257	-0.00448725403176	-0.000578535059891	-0.00267831294306	0.00494132154668	-0.00382062329395	-0.00628052293644	-0.00638490129945	-0.0075126369022	-0.00699367892512	-0.00156655913732	-0.000507359500359	0.00358403636933	0.00522981213419	-0.00763192812512	4.58967041011e-05	0.00106893101182	0.00308540853011	-0.0083280723961	-0.000591367303382	0.00636968872869	0.0112296397557	0.00186033317568	0.0193989141076	0.00818820736447	0.013901267098	0.0107944946212	0.0138511699414	0.0107355025859	0.00722098341846	0.00587341890297	0.0105197596649	0.011893630744	0.0159285212586	0.00975069374176	0.00524351318731	-0.00105385158431	0.000593578371818	-0.00793071875055	0.00791233417324	0.00160323372571	-0.0178040321475	-0.00712529180665	-0.00179282913083	-0.00684796920202	-0.0107076842495	0.0015515397131	-0.000254761801906	0.002418366518	-0.00482551444873	0.000658078503624	-0.000255711934754	-0.0036222357946	0.00330515225251	0.0012898031148	-0.00297069993622	-0.00421343706142	-0.00737422868724	0.00745021543087	-0.00123545084899	0.00418084264608	0.00413649386276	-0.000534634231079	0.00494084944844	-0.000397091889841	9.04826817654e-05	0.00141698660937	-0.002548223622	0.000571018038646	0.00479927893547	-0.00604899973685	0.00810434023725	-0.00266316076826	-0.00609487635207	-0.00291427135122	-0.00931057442633	-0.00467834185124	-0.00395977227691	-0.0041178954237	-0.0136465512551	-0.00154313927055	0.000563937480152	0.00377948274171	-0.00249317179415	-0.00335728450511	-0.00409195934241	-0.00398991801472	-0.00303399210158	-0.0099970410459	0.000484789398302	-0.0168342726895	-0.00329112482553	-0.00696226501559	0.00250808650951	-0.00643194288156
HepG2_act_chr15	-0.00496555360153	-0.0068031266703	-0.00110340707194	-0.00176524130667	0.00213449193061	-0.0140762783269	-0.00369982261318	-0.00781609655676	-0.0125348123294	0.00772799086669	0.0039717742541	0.00182274228804	-0.00647356513709	-0.00522267305742	0.00290101229951	-0.00784997169868	-0.00333986239678	-0.00844272518246	-0.00307763267247	-0.00483219382655	-0.002088684279	-0.00149898646182	-0.00396700692898	-0.00183671799362	-0.00420629652859	0.000525068153067	-0.00946794402984	-0.00890631908274	-0.00880701569765	-0.00195756239994	-0.00251703239455	0.00184192886229	0.00572718521502	0.00481811151776	0.00659288926392	-0.00867734850346	0.000864272283421	0.000695667186776	0.000142444795277	-0.00629315852035	-0.00139317906169	-0.00103216171888	0.00470364341245	-0.00510773508868	-0.00479672023564	-0.0076228600823	-0.00553840861376	-0.00730474839188	-0.00131725541168	-0.000659756595047	0.00435144697813	0.00594573391451	-0.00724487034143	0.00115826047801	6.38795915578e-05	0.00195237836789	-0.00932835419593	-0.00056139881954	0.00896807089693	0.0109253753591	0.00250431967366	0.0166243580489	0.00852132615803	0.0146366707778	0.0109321840878	0.0131300032252	0.0130252268659	0.00502097632025	0.00614187696775	0.0103067796001	0.0115587836518	0.0161666760284	0.00807641245496	0.00463171532397	0.00186243909137	0.00146408530876	-0.00829031509095	0.00633025685261	0.00244442511114	-0.0167511539606	-0.00701574819375	-0.00216469741262	-0.00692526066783	-0.0101285707144	0.000517237606012	0.000450966052272	0.00380176915941	-0.00509588038989	-0.00119115307787	-0.000381095079802	-0.00362011220208	0.00395797416458	0.00189030858661	-0.000744239398356	-0.00224817148562	-0.0065790524103	0.00842197149095	-0.00138879702346	0.00684866038674	0.00558762359832	-0.0015470695357	0.00418355264942	0.000324518334345	-0.000273518192628	0.00297418415061	-0.00368415207756	0.00226948331104	0.00614691699753	-0.0066421109985	0.00739305818614	-0.00246058642371	-0.0068567272594	-0.00261280048948	-0.00819831795443	-0.00333659948399	-0.00147506210947	-0.00275200744455	-0.0123855840472	-0.00187342932407	0.000613046728809	0.00289112689544	-0.00310578766984	-0.00188140377614	-0.00353748602097	-0.00176483575916	-0.00336246946414	-0.00859121166271	0.000467528396154	-0.0155652318752	-0.0032000585853	-0.00507342772594	0.00355458465481	-0.00694521692346
HepG2_act_chr16	-0.00553651503753	-0.00877062333789	-0.00150766603374	-0.00259518152994	0.000252319929109	-0.0128368629943	-0.00301454692635	-0.00751130391676	-0.0125474462708	0.0100652579725	0.00462316707794	0.0032594712696	-0.00572955390898	-0.00412973031379	0.00184429189109	-0.00946882110917	-0.00421442117721	-0.00676717541021	-0.00215292398406	-0.00626370566502	-0.00219248504566	-9.99390414195e-05	-0.00618875375722	0.00116142658889	-0.00258929097896	0.000613662183756	-0.00985992070384	-0.00642430580859	-0.00507037607065	-0.00323194899385	-0.00377112002793	0.00151313261636	0.00358312579614	0.00433327165873	0.00590804311698	-0.00586490131712	-2.64963868049e-05	-0.000963546464758	-0.00140421431344	-0.00500396102869	-0.0026247428777	-0.00249311522882	0.00447330359861	-0.00374230104632	-0.00506640507294	-0.00843170484144	-0.00704168933118	-0.00560788407998	-0.00106284767867	0.000303912219778	0.00428753883755	0.00547978884425	-0.00833372189622	0.000244292213355	0.000794375091895	0.00162230184553	-0.00977856525818	0.000135167568923	0.00829851020484	0.00963094452255	0.000643216973705	0.0185122880417	0.00741038614349	0.014563886446	0.0109962162427	0.0137979072784	0.011735507513	0.00574058173571	0.00639981460078	0.00988527865711	0.0106471089148	0.0151047078035	0.0107380059231	0.00702207372422	0.00301842963531	0.000193578592011	-0.00829822969563	0.00658683229661	0.000363580111819	-0.0175954332661	-0.00880948387549	-0.00154834028833	-0.006680238074	-0.00998239372915	-0.00167285234502	0.00142961177946	0.00363812474482	-0.00599197549117	0.000747328925987	0.000938846327773	-0.00247902901859	0.00427810504599	0.00176262671637	-0.00331490191215	-0.00208386317664	-0.00499586827238	0.00930841399649	-0.000476684170969	0.00464571601456	0.00616646753045	-7.67004117544e-05	0.00444058366952	0.000549879432355	0.00260794219059	0.00256465382481	-0.000683890785096	0.00275889120099	0.00742839947585	-0.00545404259674	0.00796927146605	-0.00172755313973	-0.00755312556146	-0.00135109671807	-0.0077814963712	-0.00492970984196	-0.00563221647573	-0.00293463108544	-0.0117913467582	-0.000398289491931	-0.00131545364256	0.00379132916367	-0.0029370484066	-0.000395793650228	-0.00279546635848	-0.00448738446549	-0.00407507433803	-0.00881028010521	-0.000941133517656	-0.0168533952936	-0.00387204196422	-0.00612160829566	0.00378574734906	-0.00602993596012
HepG2_act_chr17	-0.00246363781664	-0.00648243990411	-0.00191155942353	-0.0017239450792	0.00263527116698	-0.0119804677392	-0.00267882021757	-0.0075143850616	-0.0132602871104	0.00672868907964	0.00433030008172	0.0012289510388	-0.00633127117847	-0.00554426548864	0.00137362073973	-0.00866213547805	-0.00257841803691	-0.00679814175663	-0.000685965822729	-0.0058812587891	-0.00115446867956	0.000523012977178	-0.00478619394586	-0.00188130034091	-0.00355628687988	0.000692912853467	-0.0119111784364	-0.00742893286365	-0.00630281528508	-0.00151473624655	-0.00121062733384	0.000315272241279	0.0086525981814	0.00314742277126	0.00293117713326	-0.00794835343488	0.001936759263	5.68377381145e-05	0.00168165271308	-0.0054469261429	-0.000708818110904	-0.00292494287051	0.00352052050731	-0.0031226915515	-0.00599396388961	-0.00682233527157	-0.00652398986025	-0.00597690953492	0.000426513447711	0.000861787502269	0.00308889644094	0.00503116512677	-0.00712166031222	0.00219685868814	0.00153999489452	0.000433188775283	-0.00734651863337	0.000850910153014	0.00664800764958	0.0111929016547	0.00216092304013	0.0157743844455	0.0106772338035	0.0150175165647	0.0114681585139	0.0133593613125	0.0125494638851	0.00178714682657	0.00273275274894	0.0104689697645	0.0118616630803	0.0143137150206	0.00941368538247	0.00549010626323	0.00322763046841	-0.000696640405779	-0.00751629597463	0.00878982052487	0.00139799034849	-0.0170619200032	-0.00652883501696	-0.00174759051469	-0.0060565991035	-0.0114453150231	0.00022630826543	8.12098882178e-05	0.0033983551942	-0.00386107709594	0.000791953526472	0.000686135778704	-0.000763238435336	0.00416197684853	0.00235980271898	-0.00247090299389	-0.00114475624049	-0.00456673500376	0.00983613542607	-0.00137970454463	0.00632329865189	0.00686134202468	-0.0010234907908	0.00489065935857	0.00095127205495	0.00219641710067	0.00296616908507	-0.00191884611711	-0.000229085109655	0.00599846282516	-0.00463499233941	0.00434009313415	-0.00528822834266	-0.00675865797853	-0.00380593521465	-0.0111186520221	-0.00525869433181	-0.00452122212621	-0.00481943445907	-0.0141082324006	0.000989271518527	-0.000267133675684	0.0036268311981	-0.00378203970325	-0.00395078100568	-0.00392970472212	-0.00431228068852	-0.0037966291701	-0.0134780902113	0.000578076736493	-0.0165763513292	-0.00235606419152	-0.00586132983753	0.00273309149484	-0.00639191306644
HepG2_act_chr18	-0.00360183932514	-0.00931044931722	-0.00178255676714	-0.00180728324053	0.00123828880299	-0.0131163357885	-0.00275874239682	-0.00616730769091	-0.0121851134135	0.00921880267835	0.00454157039211	0.00368998498327	-0.00566254773545	-0.00505029604315	0.00311248041735	-0.0068064998656	-0.0031311851676	-0.00749843268292	-0.00192758838115	-0.00638512913641	-0.00349156784772	-0.000638737910979	-0.00581145449189	-0.0017274203175	-0.00215488511709	0.00136732036214	-0.0107481039591	-0.00742448315498	-0.00666619815552	-0.00159746519765	-0.00212554459098	0.0012734848569	0.00472153430713	0.00376504324236	0.00524750591247	-0.00715839297535	3.46315397704e-05	0.000472861962238	0.000412738652057	-0.00562883177893	-0.00143324246428	-0.00386914118362	0.00320481001214	-0.00639645265566	-0.00683534212631	-0.00796717258806	-0.00672968622222	-0.00802476906742	-0.00267869447631	-0.000193374087251	0.00262008207385	0.00449003546985	-0.00838496094705	0.00144547776836	9.30417588467e-05	0.000704662577061	-0.00960551977132	-0.000286436575111	0.00804249893292	0.0105647487155	0.00369230258379	0.0182703534928	0.0100404608542	0.0160832007002	0.0112874334285	0.0129460176898	0.0136275261873	0.0050593638836	0.00687856950065	0.0129596856099	0.0127501085949	0.0178349703908	0.0099999731941	0.0057749882063	0.00138543858302	0.000306694328979	-0.00806101287624	0.00682834486499	0.00258197349149	-0.0163513076434	-0.00614814275773	-0.00200051153558	-0.00545823973576	-0.00895579466604	0.000624492491848	-0.00237348222492	0.00276777513122	-0.00398225691401	0.000356227802674	0.000919524116199	-0.00279507545705	0.00183103630594	0.00212335220216	-0.00367344852288	-0.00287258871419	-0.00519576484728	0.00913064451091	3.87093475316e-05	0.00398084384168	0.00670628386579	-0.000548867833334	0.00426884784206	-0.00119234464883	0.00140855393918	0.00214091843594	-0.0019967646643	0.000323071565634	0.00512581664474	-0.00511499991861	0.00827538838111	-0.00443988781318	-0.00783037738184	-0.00265106206636	-0.0101005289852	-0.00380432297514	-0.00427784944431	-0.00452373390781	-0.0125191879661	-0.00146975268325	-0.000534339721888	0.00322919101543	-0.00271717935027	-0.00410505360476	-0.00507481154665	-0.00243912724988	-0.00306277696395	-0.00859574071821	0.00182036035034	-0.0172481617725	-0.00367245384166	-0.00562569841721	0.00478057033602	-0.00687242386755
HepG2_act_chr19	-0.0049373453863	-0.0085245457245	-0.00173817586516	-0.0010886558028	0.000610031110535	-0.0141096278057	-0.00381769862183	-0.00675594043454	-0.0137338930468	0.00746183875285	0.00265848364558	0.00291872881885	-0.00345339341822	-0.00433935299488	0.00351865713929	-0.00660117041219	-0.00468406097914	-0.00678462660236	-0.00113518281667	-0.00410323482443	-0.00320621824101	0.00141971570805	-0.00498971652256	0.000248134362758	-0.00181211300893	0.00188726396734	-0.0105320302017	-0.00716724266216	-0.00697305234175	-0.00184633486915	-0.00321607511876	0.000761396544477	0.00210960846707	0.00452655385365	0.0035860048094	-0.00644731757311	-0.00114359220177	-0.000982006749673	-0.00243958281718	-0.00637483991005	0.000380659118567	-0.00141682904097	0.00372247608289	-0.00368488637782	-0.00495118441233	-0.00545056838511	-0.00554240042737	-0.00683340058555	-0.000544580076342	0.00221540639841	0.00443988894945	0.00523080720205	-0.00764430129541	0.00198113986406	0.000618848845041	0.00194926510441	-0.00906836075061	-0.000544611894421	0.00554455671933	0.00936811627841	0.00454511955808	0.0173480551529	0.00903294389301	0.0134285643466	0.0136613453778	0.0150192631352	0.0126362895585	0.00557607952215	0.00441824675383	0.0114891773563	0.0117262230748	0.0173170652624	0.0114266535979	0.00600938601219	0.00246889806197	-0.00055869102569	-0.00819216898277	0.00735175947667	0.00306326240252	-0.0169241455001	-0.00786679898024	-0.00251227216197	-0.00747933093734	-0.010054129706	0.000230683107584	-0.000105765186496	0.00292278736671	-0.00504410362795	-0.00132420881944	0.00237274726111	-0.000884372989775	0.000759407982368	0.00135915642333	-0.00345513597706	-0.00434291088935	-0.00526296517388	0.0070765137734	-0.001185362686	0.00380499294876	0.00732866203902	7.89306142892e-05	0.00265800591397	0.000535103235576	0.00162477995643	0.00326956439174	-0.00374533797212	-0.00103686230796	0.00556510414262	-0.00517753754783	0.00715524672152	-0.00189191630115	-0.00732850510595	-0.00238944598283	-0.0110128648259	-0.00389247675945	-0.00378586595502	-0.0033589855511	-0.0154534930398	0.000330645983638	0.00222075014268	0.00361071825574	-0.0046597346128	-0.00416543082073	-0.00373217702692	-0.000749565374274	-0.0042562963584	-0.010471370712	-0.000140408732806	-0.0167505650673	-0.00454603331721	-0.00507792276219	0.0056957630766	-0.00679202574465
HepG2_act_chr2	-0.00355007074992	-0.00918917490076	-0.002667873325	-0.00471751126348	0.000432752898221	-0.00983333877954	-0.00155175287492	-0.00603669246461	-0.0117916816761	0.00947607648569	0.00625138942388	0.00352874007882	-0.0045997361241	-0.00441615633592	0.00282967078431	-0.0070560014086	-0.00383918918232	-0.00734275229046	-0.00192140747209	-0.00480393706724	-0.00215763267462	0.0012625450662	-0.00401979041787	0.000214076278706	-0.00227951052479	0.000339706184697	-0.00693192732173	-0.00653387706959	-0.00622263248206	0.000104776097833	-0.00200308174485	0.0015049651523	0.00597933097806	0.00312658719469	0.0061342110908	-0.00685810053464	0.00170098128958	-0.00262896102578	-0.000273292725928	-0.00492016192273	-0.000678658610171	-0.00223902836791	0.00414650252886	-0.00262571208212	-0.00687304046971	-0.00610163866916	-0.00633381923166	-0.0078098769002	0.000646489176044	0.00200548409413	0.00428165464106	0.00744611207782	-0.00929505786819	0.000938940869043	-7.21616026459e-05	0.00120150627646	-0.00741758518845	-0.00164150484787	0.00797618072304	0.00978082424293	0.000652973123661	0.0172374746781	0.00742378936404	0.013197771883	0.00972760873553	0.0137916423984	0.0144215059839	0.00459892986532	0.00680248643735	0.0130014453595	0.0115639837814	0.0128606274489	0.00671559723815	0.00423114314968	0.000806365829734	0.0025890973075	-0.00943413689369	0.00522639197734	0.00245437652263	-0.0157096108741	-0.00790521436218	-0.00460054719488	-0.00682826075967	-0.00754612368997	-0.000229607449463	0.00011644497707	0.00258927819835	-0.00439894695063	-0.00107573149204	-0.00153525988184	-0.00458593981847	0.00048906521077	0.0012020603948	-0.00484296514616	-0.00310010525815	-0.00438916545115	0.00859875856847	-0.000867903263553	0.00333919889251	0.00467455556693	-0.00222426910002	0.00279534225202	0.0011823576318	-0.000126508373767	0.00102257927586	-0.00153088510263	0.000527447975133	0.0050811714371	-0.00710905153746	0.00737712931589	-0.00364493427673	-0.00572992795119	-0.00239439560712	-0.0112885317282	-0.00541204347844	-0.00455880837383	-0.00299414043505	-0.0117498008245	-0.00118466904332	0.000149589816394	0.00513956143665	-0.00129719432575	-0.0012487733265	-0.00340236075416	-0.00152824803371	-0.00259284291362	-0.0100494797528	0.000118268831533	-0.0159656163872	-0.00245667300218	-0.00363502617237	0.00168695982136	-0.00717691703631
HepG2_act_chr20	-0.00251985847438	-0.00869822068911	-0.000944611849358	-0.00180966683453	0.0011003504051	-0.0128163775117	-0.00459933178822	-0.00634712349355	-0.0119772152442	0.00953795578815	0.00515874371912	0.00279728400483	-0.00618677111519	-0.00568209654808	0.00126925229471	-0.00818226712254	-0.00340782812927	-0.00583233885787	-0.00106690838748	-0.00528445624371	-0.00244368997049	-0.00186970610771	-0.00455894540189	-0.000116641991142	-0.00224173225211	0.00060278494495	-0.00926060594137	-0.00711388898804	-0.00634826432291	0.000671243491805	-0.000893932026784	0.00150297709231	0.00542378473215	0.0040041665613	0.00458927373562	-0.0077096273591	-0.00231307011099	-0.00189860050915	-0.00100122567741	-0.00496164944268	-0.00086158862298	-0.00387765724001	0.0034315492362	-0.00440504395709	-0.00636468047637	-0.0080335166635	-0.00756534095458	-0.007675155874	-0.00141492887468	0.000686053103347	0.00518644732448	0.00593300099495	-0.00803644886917	0.00215985309203	-0.000815898272793	0.00149769537171	-0.010364884419	-0.00155590570856	0.00615357822913	0.0097995646733	0.0035880979861	0.0193054505991	0.00908688907646	0.0146504018799	0.0129684841127	0.0141866377119	0.0125393475934	0.00344741958077	0.00559571591285	0.00940505785407	0.0110078844513	0.0150960353028	0.0100157959972	0.00436794419069	0.00186962101791	0.000968970096134	-0.00815010428743	0.00837022872537	0.00298290111634	-0.0167579831043	-0.00620807569189	-0.00217862091515	-0.00683339358577	-0.00974338310866	-0.000444161432119	-0.000446597187297	0.00273118981212	-0.00649569865927	0.000270369241578	0.00161199790644	-0.00400404216998	0.00102442832037	0.000788521833756	-0.00337394828627	-0.00183476598622	-0.00421938387699	0.00845069030341	-0.000946971761681	0.00604927332632	0.00630491830608	-0.000452061316866	0.00420004762592	-0.000247744757903	0.0018666509947	0.00323569025833	-0.00249518823227	0.000327670510204	0.00685778176537	-0.00771445414399	0.00833338818075	-0.00291238368101	-0.00598373304274	-0.00120944253107	-0.00870595655915	-0.00455125141857	-0.00474084968757	-0.00348429005364	-0.0127883160121	-0.000534809039028	0.000420918520299	0.00349151240718	-0.0038899544664	-0.00232346067255	-0.00505574394587	-0.00197120853378	-0.00342455924414	-0.00852822580615	0.00256306997804	-0.0156247148188	-0.00482778731635	-0.00690858910023	0.00502800847454	-0.00741178984035
HepG2_act_chr21	-0.00281776343662	-0.00862036568848	-0.00138839793754	-0.00235623217931	0.00122770708964	-0.0132153359592	-0.00441669466883	-0.00686859565258	-0.0138015046059	0.00907209069624	0.00463221562995	0.00233087544006	-0.00587488066578	-0.00502953697545	0.00236253576613	-0.00898125936614	-0.00255609076591	-0.00752376541584	-0.000743130667064	-0.00517912419041	-0.00287252677459	0.000134783478416	-0.00558831084508	-0.00038052193783	-0.00234879090332	0.00123489128717	-0.00923651479436	-0.00670018960437	-0.00671871146343	-0.0012654624878	-0.000947555190768	0.0019198429651	0.00570937309031	0.00277015920269	0.00663431344839	-0.0063202297351	-0.00105091875763	-0.00106459959407	-1.30721616637e-05	-0.0052769170856	-0.000525848221584	-0.00312130401066	0.00403081033168	-0.00413332344503	-0.00707167863873	-0.00724790399156	-0.00651268393835	-0.00643160397909	-0.00115498351183	0.000298153549891	0.00502195062694	0.00461112787116	-0.00713847028079	0.0017064328595	0.00112836242142	0.0015711049522	-0.00901026482512	-0.000429976393653	0.00677968735368	0.0102648398455	0.0012851023142	0.017021924667	0.00877931445827	0.0143927331463	0.0120318623786	0.0127609923261	0.0132399198108	0.0030713323524	0.00531616318266	0.0110689275002	0.0114929765388	0.0153402955651	0.00975312578621	0.00612539983443	0.00142862446299	0.000435373044605	-0.00750395086322	0.00606096317334	0.00276082268699	-0.0174902542509	-0.00748758321067	-0.00173864455851	-0.00704831907702	-0.0088756956341	-0.000554856915913	-0.000446069219876	0.00290715533094	-0.00534734892985	-0.000440633320305	0.000348236729108	-0.0029145818233	0.00267332959583	0.00118942658111	-0.0032958224821	-0.00234474080073	-0.00538475328896	0.00935751898328	7.53120016439e-05	0.00563201772865	0.00677541176706	8.9061400909e-05	0.00360874305925	-0.000808725374309	0.00173676247998	0.00232251979388	-0.00284850255977	0.000176675401552	0.00572218380833	-0.00555528514192	0.00759806356499	-0.00370406603639	-0.00696957447476	-0.00198911725087	-0.0104147191792	-0.00476078233471	-0.00368460984313	-0.00265663206093	-0.0135360179196	-0.000195926222239	-7.90693486938e-05	0.00329503746855	-0.00264949008486	-0.00324786101404	-0.00401834825897	-0.0031524113174	-0.00339028485711	-0.00926295094229	9.9040439276e-05	-0.0161374553614	-0.0024485522969	-0.00488331565622	0.00279888836551	-0.00771487407959
HepG2_act_chr22	-0.00349818355937	-0.00930958847139	-0.00236122638196	-0.00281433555657	0.000963291231595	-0.0120384001029	-0.00312888433601	-0.00632552177167	-0.0113665544287	0.00812404792	0.00482522546459	0.00269103661375	-0.0042940688377	-0.00407478955652	0.00304756596721	-0.00702673919152	-0.00382614695245	-0.00712636288425	0.000317651085897	-0.00488334091389	-0.00304100128872	0.000254464185308	-0.00352962545768	-0.000604828401744	-0.00348555680194	0.00115353299181	-0.0106732871862	-0.00769310131268	-0.00580112040911	-0.00109063689167	-0.000604192133686	0.00242936921802	0.00584381941639	0.00309751957769	0.0048523865278	-0.00661652339677	0.00060170109162	-0.00207800886437	-0.00176111564098	-0.00548225671584	-0.000500948669892	-0.00354599516954	0.0045353000221	-0.00451193946856	-0.0058125048445	-0.00704597654456	-0.00828489955775	-0.0076972146362	-0.00118566030422	0.000213336554523	0.00307757698239	0.00573357933713	-0.00775604593442	0.000878422919928	-0.000388579614905	0.00131597577869	-0.00928349395385	-0.000326441980794	0.00599374651216	0.0112891398636	0.00191194313504	0.0163078155779	0.00937503549035	0.0142650635162	0.0114825604106	0.0129408006689	0.0126744605539	0.0027003245381	0.00527199321695	0.012731595883	0.0123544669442	0.0147820947153	0.00887824105134	0.00554612492119	0.00204248521102	0.00192000757505	-0.00915523108038	0.0073028493078	0.00197486707036	-0.0181850576431	-0.00714429266282	-0.00319319060674	-0.00625169401877	-0.00839594772183	-0.00115307474649	0.000133856949202	0.00259056561096	-0.00505380083905	0.000564996070597	-0.000497009921143	-0.00331520482045	0.00190419076084	0.00119960323246	-0.00347646194652	-0.00250591600937	-0.00522248625415	0.00849144813364	-0.00202125681481	0.00609868795573	0.00619484459635	-0.000414996901274	0.00360091682112	0.00145624299891	0.0015766081652	0.00368252196469	-0.00189924751834	0.00287281557616	0.00454627639345	-0.00532535006027	0.00720158500897	-0.00326448292887	-0.00679037045563	-0.00239508408282	-0.0104796907419	-0.00367460741599	-0.00391729647162	-0.00252510998347	-0.0124555713612	-0.00157739119722	0.00066904199547	0.00340802254259	-0.00387782282054	-0.0030886994844	-0.00308945421942	-0.00153507073744	-0.00422577325994	-0.00827455092445	0.000690045105787	-0.0190313389323	-0.0025702410788	-0.00587871489452	0.00438577961314	-0.00754052302312
HepG2_act_chr3	-0.00510801286856	-0.00790732368644	-0.00121954393562	-0.00169921101179	7.55568026404e-05	-0.0117567369421	-0.00276393730141	-0.00758024977102	-0.0120123028431	0.00612237930178	0.00444289402209	0.00266059109165	-0.00686155945176	-0.00415952877015	-0.000187935144452	-0.00871366720472	-0.00213450623733	-0.00810882035932	-0.0042194682938	-0.00767474387507	-0.00196237681509	0.000629284448704	-0.00636192659852	0.000948042103036	-0.000128887399821	0.00137739320053	-0.00995944108357	-0.00799321004231	-0.00506812474169	-0.0020568087181	-4.8543491863e-05	0.00203896972666	0.00514549953474	0.00360135321478	0.00489791991798	-0.00632380275812	-0.00252881508947	-0.00187148189552	0.00121381821997	-0.0038326125677	-0.00127746420265	-0.00145596069144	0.00626728748276	-0.00334201160573	-0.00813880976181	-0.00647330175989	-0.00682928078297	-0.00598901657204	-0.000469051597998	0.000251281500562	0.00519296413877	0.00458655028325	-0.00591636329866	0.000163556539279	0.000701836405375	0.00167554151884	-0.00917330290305	-0.00289324507485	0.00761474862339	0.00992719424379	0.00394136337351	0.0190091922288	0.00792176410481	0.0147363958725	0.0125597427878	0.012277534456	0.0129177313743	0.00254199382746	0.00402768277468	0.00991887565533	0.0143372197235	0.0151892960897	0.00971489845658	0.00594640221109	0.00239578804138	-0.00120710914586	-0.0092506500451	0.0073162621389	0.00216515152308	-0.0144666958702	-0.00737958762199	-0.00331812316257	-0.00655748975889	-0.00966893000496	0.000389124572346	-0.000475587077792	0.00184875435235	-0.00488191075703	0.00110804165636	0.00162250958599	-0.00352169695286	0.00202434201923	0.00187832015928	-0.00316893088288	-0.00204462624998	-0.00435151264838	0.00692381364795	-0.00241605913238	0.00473134262957	0.00843686324515	-0.00163910660403	0.00470468704123	-0.000422602140239	0.00135802867813	0.00228840361388	-2.61452415635e-05	0.0022565783198	0.0037265002493	-0.00677967999612	0.00607250733021	-0.00462303750303	-0.00763371504395	-0.00247665587717	-0.0103837861039	-0.00516151681553	-0.00389993979953	-0.00324067636185	-0.0127745934806	8.92636131279e-05	0.000445988984448	0.000694329123191	-0.00205188287108	-0.00145990605808	-0.00400540495008	-0.00399180570469	-0.00276080391987	-0.00769388441791	0.00109001609635	-0.0142283746549	-0.00252295718536	-0.00522710546989	0.0052908422436	-0.0064335823045
HepG2_act_chr4	-0.00362740571133	-0.00932407349493	-0.00261984061098	-0.00446264249639	0.0014775699497	-0.0116409072869	-0.00204100819244	-0.00804491550929	-0.0137496431809	0.00725988331299	0.00348615334734	0.00235460173796	-0.00529653885127	-0.00522339305478	0.00361654361845	-0.00975806730482	-0.00380585300051	-0.00507840395959	-0.000258410842194	-0.00597170603733	-0.00139722520518	0.00192913452246	-0.00412140789122	0.000171658287283	-0.00140664758096	0.00176645281794	-0.0107666122208	-0.00594026750678	-0.00410095358709	-0.000269346621535	-0.00292046688513	0.00234427099452	0.00368094588205	0.000994093262522	0.00559892583542	-0.00695398506909	-0.000953432838368	-0.00175426488409	-0.00243768147659	-0.00395498553921	0.000715608394412	-0.00339218071449	0.00250294125242	-0.00226463015711	-0.00556218728495	-0.00670962679346	-0.00780686975823	-0.00512798820796	-0.00318540703406	-0.000906851208261	0.00615687257633	0.00580730210606	-0.00620108104256	-0.000171295220089	-0.00017164730585	0.00252190653456	-0.00893994334579	-0.00137606246435	0.00712223330527	0.0103750191322	0.0011050027232	0.0149816898172	0.00937556736727	0.0125057533638	0.0109223695669	0.0131956300282	0.0125801939652	0.0042700074905	0.00594391815011	0.00986629866753	0.0126980130412	0.016215803609	0.00950115197708	0.00550578342536	0.00204103365055	0.000918848155531	-0.0077516344065	0.00788358598725	0.00275264365171	-0.01576287288	-0.00803837511847	-0.00436078157413	-0.00686562035854	-0.00905343139167	-0.000924750664913	-0.00280702392172	0.000630561789121	-0.00640332251322	-0.00104150151997	-0.00055795402488	-0.00136456234025	0.000600065186359	0.00235067937209	-0.00260007845359	-0.00236732409353	-0.00475071525106	0.0084453175477	-0.00270521553006	0.00588932607773	0.00680330887376	-0.000614791767651	0.00423952965459	0.00158454899604	0.00245944219884	0.00378343815148	-0.00130190077203	0.00253468748372	0.00416809135071	-0.00536106990956	0.00635036058246	-0.00425326040384	-0.00597991182497	-0.00122988056895	-0.00891830563289	-0.00194730210499	-0.00189773166757	-0.0025166352916	-0.0128756673473	-0.000219438763371	0.00109030780609	0.00458987634533	-0.00128512237545	-0.00242158012029	-0.00668642338316	-0.00342434730257	-0.00231991901648	-0.0092122007364	0.00115201348205	-0.0150661570794	-0.00143678035529	-0.00527356309034	0.00293675266584	-0.00898008970207
HepG2_act_chr5	-0.00273839283764	-0.00763119869032	-0.000302401007005	-0.00356710081976	0.00035032991333	-0.0136231592223	-0.00301415994245	-0.00752862089327	-0.0109699291668	0.00832853978373	0.00284202077277	0.00359298134373	-0.00743350839298	-0.00504365626299	0.00327257216505	-0.00862837132672	-0.00306666187151	-0.00756886549141	-0.00128890911503	-0.00520696140339	-0.0019753218021	-0.0011335787352	-0.00416864435656	-0.00319535032627	-0.00325863462249	0.000585887100233	-0.00798733429664	-0.00560778751616	-0.00576722130377	-0.000749128915621	-0.00108899194114	0.00259486614562	0.00547026793958	0.004387465653	0.00461895308158	-0.00667473364701	-0.00174602477965	-7.07448417665e-05	-0.00167870003689	-0.00468059301867	-0.000614762271664	-0.00407170214719	0.00268096482458	-0.00413156353485	-0.00505674956502	-0.0082554119577	-0.00733399799535	-0.00557761904076	-0.000718672807526	0.00117271470094	0.00396478125949	0.00540181806065	-0.00762678613213	0.0012507861601	-0.000157919444042	0.00155242765952	-0.00851612377509	-0.000219673899735	0.00686468310544	0.00984752660024	0.00352036363938	0.0167426979979	0.00991358825643	0.0157907417077	0.0125954682526	0.0142139151226	0.0125546806747	0.00482891712285	0.0062885909199	0.0112882405189	0.0113707553064	0.0183365954526	0.00720429367783	0.00623712426105	0.00328563163994	-0.000435575871776	-0.00886588127544	0.00644664034624	0.00117917913916	-0.0173789826727	-0.00857602337552	-0.00356931163194	-0.00677264183177	-0.0114579066996	-0.000198606430092	-0.000367124243672	0.00446036488227	-0.00403400446068	0.000911733576047	9.22059217594e-05	-0.00263123834313	0.000877498306529	0.000785176341301	-0.00314391315124	-0.000565632494098	-0.00505521701725	0.00951891608766	-0.00417430949814	0.00418496095056	0.00657258552574	0.0015876481735	0.00370258056344	-0.00131090678983	0.00225121788336	0.00398260849955	-0.000770628346024	0.00157272582862	0.00642703969094	-0.00476036880851	0.00822935517571	-0.00309143158749	-0.00682257447246	-0.000807490616915	-0.00949025867171	-0.00317808152125	-0.00263189496413	-0.00279745582507	-0.0117978667953	-0.00195139763149	0.000368370540657	0.00219118751893	-0.00439479721181	-0.000193452993333	-0.00497741690529	-0.00403352729621	-0.00313184974425	-0.00743366505676	0.000511542162772	-0.0173838426572	-0.00498242407023	-0.00783947461391	0.00299372297025	-0.00844130992442
HepG2_act_chr6	-0.00402584250315	-0.00852708884005	-0.00271310340581	-0.00287578791021	0.00125307892548	-0.0120281144396	-0.00355388425197	-0.00662060200178	-0.0118283943498	0.00916546727631	0.00445322278269	0.000332995912561	-0.00583244024725	-0.00666135522241	0.000340418856997	-0.0083410506407	-0.00596544933513	-0.00655027847283	0.00088710400012	-0.00302487480325	-0.00280576337691	-0.00101413110919	-0.00584612420563	-0.00156056768789	-0.00205001237161	0.00147070365186	-0.00895128608482	-0.00733978896267	-0.00493652747784	-0.00182150930901	-0.00179843210364	0.00108012015661	0.00634869252405	0.00578339513547	0.00595945269748	-0.00629874556011	-0.000666101268755	-0.000192636700331	0.000390434664995	-0.00613370413036	-0.000234562846707	-0.00194487073435	0.00566206417205	-0.00459310810728	-0.00570179570924	-0.00611657045066	-0.00688541973586	-0.00490519151454	-0.000781860012941	0.00130326628542	0.00409981481715	0.00361691801156	-0.0050587914479	0.000626695283173	0.000349905317368	0.00113284925601	-0.00809372368263	0.000200637228354	0.00734135187806	0.00936433560259	0.00519774961777	0.0173291158045	0.00835313826458	0.0132473946472	0.0120733196106	0.0100982644961	0.0111703466878	0.00517950151355	0.00490942070523	0.0105480624617	0.0116239798327	0.0171471346926	0.00873049042674	0.00338035411089	0.0016005041396	0.000159873862817	-0.00848550780866	0.00571851739871	0.000959876834273	-0.0158775915334	-0.00778638922055	-0.00362329088633	-0.00584783561567	-0.00971975648822	0.00106437501284	0.000695289355156	0.00290583040976	-0.00648576832058	-0.000870585918168	0.000974382907359	-0.00184037104384	0.00176250495063	0.00073495369854	-0.00270103937723	-0.00376092759737	-0.0056896591873	0.00819077634184	0.000464980211752	0.00429974545284	0.00698229042506	-0.000417505782811	0.00460229187894	-0.00142365356777	0.00103866961448	0.00245795000088	-0.00150205130552	0.00167546872082	0.0048845748332	-0.00514214208542	0.0082366952203	-0.00407298994348	-0.00669632533629	-0.000127917081314	-0.00844012972357	-0.00398517739404	-0.00452030794014	-0.00436007712339	-0.0131333659548	-0.000920046580261	0.000116753851531	0.00407530177084	-0.00131959007217	-0.00282470747681	-0.00412651677122	-0.00268767124245	-0.00330651390963	-0.0086799300171	0.00117878248574	-0.0149343356259	-0.00292505443566	-0.00516746160379	0.00405417524821	-0.00625775679464
HepG2_act_chr7	-0.00367601475503	-0.00826751325392	-0.00116584807921	-0.00276706740783	0.00214296998493	-0.0122038900915	-0.00306489454667	-0.00607814240842	-0.0116385037354	0.00735662409257	0.00360144231286	0.00153954735078	-0.00459015372588	-0.00465519863602	0.000513197694321	-0.007060344841	-0.00332318822883	-0.00844864668209	-0.000630937617237	-0.00888547438651	-0.00315998778095	-0.0016374277309	-0.00526820189475	-0.00146388293236	-0.00300406919564	-0.00195383300254	-0.00925741789614	-0.00650663050051	-0.00806788470936	-0.00341628644038	-0.00206047031765	0.000501391689113	0.00529266071054	0.00455107590344	0.00500310156044	-0.00804422444249	0.000106188902859	0.00200932288896	0.000911790631148	-0.00492042818141	0.000521727305957	-0.00247227279954	0.00492179634624	-0.00473607293598	-0.00730576878134	-0.00811274386503	-0.00670463056291	-0.00744657158619	-0.00150523339359	0.000887490333103	0.00272283388369	0.00794947551447	-0.00627290970221	-0.000496896639992	0.00106611319744	-0.000332331760472	-0.00822209700991	-0.00284002538751	0.00729612117743	0.0109685858978	0.00376565544645	0.0170731773016	0.00962779772624	0.0105743904652	0.0105692777868	0.0124954257749	0.0129355352377	0.00229157994856	0.00604537977879	0.00999877719542	0.0108009127819	0.0145803027227	0.011766764821	0.00552904131671	0.00334518247574	0.000202746858297	-0.00620476976137	0.00672248596174	0.00279367630918	-0.0167493623627	-0.00508125917562	-0.000902049323836	-0.0065264346867	-0.00623964957326	-0.000686446304573	-0.00118803834245	0.00325497492344	-0.00560381010993	0.000658628911142	0.00133940229394	-0.00195236171046	0.00286910719306	0.000205490120648	-0.00374672699369	-0.000212726041386	-0.00447923853914	0.00682957728149	-0.000815836551672	0.00500630462707	0.00608503851803	-0.000172901206849	0.00470148738429	9.58738269043e-05	0.000942530349194	0.00216052567867	-6.55125149401e-05	0.0020625962009	0.00650163716698	-0.00681444452761	0.00763504497812	-0.00225607928801	-0.00461321715287	-0.00191695489611	-0.0084139275534	-0.00469404460197	-0.00355222718062	-0.00507114126408	-0.0109208730821	-0.00251825338729	-0.000789205522857	0.00386845025556	-0.00312674195577	-0.0034338146359	-0.00382811985599	-0.00317577597288	-0.00470221771879	-0.00775468756242	0.00114947565981	-0.0153060096266	-0.00328441237242	-0.00557803469506	0.00521863355254	-0.00661987268706
HepG2_act_chr8	-0.00367465507115	-0.00666058973875	-0.000880853217886	-0.00381335034288	0.00280423117244	-0.0122411239351	-0.00409327452027	-0.00562825971838	-0.0134694804002	0.0108406293869	0.0049912866195	0.00355908259236	-0.00299543880957	-0.0028595356418	0.00217929951169	-0.00805300625579	-0.00224780871017	-0.0063179561468	-0.000309972278726	-0.00197517789462	-0.00211284253714	0.000603323264722	-0.00514529048162	-0.000375959611478	-0.00105907183533	-0.000375077502799	-0.0103289356743	-0.00625288766388	-0.00690354985118	-0.00242582469466	-0.00244027882763	0.00199047346438	0.00511070869433	0.00379984944501	0.00505309269063	-0.00715149941326	9.10184648827e-05	-0.00163420630131	-0.000804476037353	-0.0061961886819	-0.00116348772744	-0.00284172096647	0.00361097763425	-0.00417701191673	-0.00673766845157	-0.00677051156632	-0.00556443433159	-0.0077388125476	-0.00107499955601	0.000958260222976	0.00602206086852	0.00689936303542	-0.00774300113332	-0.000683971801762	0.000294427521924	0.00224691799315	-0.0103587615246	-0.00277805443273	0.00689728100105	0.0109769567679	0.00212051528776	0.0154580189519	0.00668290113921	0.0137702251821	0.0110445458259	0.0128979677789	0.0122454038759	0.00270873763763	0.00429407862702	0.0110495963326	0.0119897834606	0.0163329661528	0.00951699807409	0.00486418063664	0.00325324041156	0.00192397545604	-0.00859536922564	0.0058905235538	0.00222179320858	-0.0173446204377	-0.00685009728244	-0.00493199010999	-0.00649235521321	-0.00946396144991	-0.000192786494152	0.00034662932773	0.00263581405774	-0.00540303600133	-0.000353528628438	-0.000275137808402	-0.00304184566464	0.00159672017076	0.00210103818146	-0.00381905230332	-0.00258624422265	-0.0068035134861	0.00917382867499	-0.00149183051968	0.00388699746405	0.00779580397337	-4.21123065112e-05	0.00401447951378	-0.000355087739859	0.0020688906659	0.00331529494592	-0.00207788500771	0.000258468837712	0.00480489887211	-0.00608220366609	0.00720996492698	-0.0045248646833	-0.00672987017752	-0.00402014509155	-0.0107081568819	-0.00469195826334	-0.00212168929302	-0.00283401278973	-0.0137942363032	0.00106310891417	0.00114509281196	0.00398840583307	-0.00578540885626	-0.00152691754262	-0.00347181856628	-0.00232101693444	-0.00367428123863	-0.00802145276116	-0.000368709098402	-0.0156168340559	-0.00347217436485	-0.0069590677367	0.00437629137582	-0.00694159436997
HepG2_act_chr9	-0.00268064849999	-0.00920831099157	0.000488185947911	-0.00280712842005	0.00158244120394	-0.0138575322621	-0.00387935425189	-0.00498997053405	-0.0113326575314	0.00877542790478	0.00376942745543	0.0013539689022	-0.00541689597957	-0.00410976032684	0.00273237581349	-0.0064604243891	-0.00210207887667	-0.0062312839933	7.02923950186e-05	-0.00425404150387	-0.0033115425195	0.00162018738721	-0.00466783494217	0.00061857144378	-0.00118940063601	0.000806869980668	-0.0111246624639	-0.00604472334152	-0.00709589937915	-0.000785438323774	-0.000573285483283	0.000309545812175	0.00255138741768	0.00370627619115	0.00652984936428	-0.00757020995029	-0.00162119023598	0.000563642220692	0.000223464314652	-0.00511806853971	-0.000415694747835	-0.00412283194044	0.00325474484936	-0.00592167738338	-0.00851103992993	-0.00813794785122	-0.00782651857482	-0.00697629650208	-0.00217503959583	0.00204089472042	0.00207620126859	0.00662927700709	-0.00552446243124	0.00141864038283	-0.000793870161921	0.00114666978032	-0.00815605732679	-0.00241490258292	0.007218893193	0.00832895983458	0.00284363947335	0.0178067779336	0.009211821898	0.0132732292246	0.0100861491986	0.0131835695598	0.0120122673402	0.00382032444179	0.00661913204917	0.0120258295935	0.0118141810304	0.016512368362	0.0106007070062	0.00784617742005	0.00156367528053	-0.000325175947256	-0.0075185706452	0.00720842905428	0.000940593171855	-0.0165725866817	-0.00734719541754	-0.0023600482721	-0.00476305507486	-0.0088152097543	0.000931423713925	0.000206809404405	0.00235507161179	-0.00558342258206	-0.00166848063043	0.000996001130557	-0.0035644316923	0.00137803423722	0.00146732305382	-0.00420480046421	-0.00410735989057	-0.0056789358587	0.0100156842703	-0.00289320285714	0.00511993889788	0.00693770919588	-0.00125965201788	0.00357229731669	-0.000443644623267	0.000790634625387	0.00353448919707	-0.00169284490739	0.00199991380162	0.00532479353648	-0.00465797703238	0.00933817040723	-0.0044655315332	-0.00753799857882	-0.00148695253672	-0.00870464291251	-0.0040090834087	-0.00351059315522	-0.00367497646989	-0.0123380852935	0.00170085912164	0.000459087759805	0.00365552662272	-0.00431193592955	-0.00351353636957	-0.00385488601205	-0.00345329037007	-0.00366624107773	-0.00925165836433	-4.78372316909e-06	-0.0181036807812	-0.00199519597534	-0.00504475715343	0.00356824389581	-0.00826662880902
HepG2_act_chrX	-0.00400524684529	-0.00718876537152	-0.0011711713974	-0.00245385672261	0.0020623537107	-0.012740468489	-0.00356037508319	-0.00592502469134	-0.0125609491331	0.00825439726196	0.00358085590159	0.00225945254437	-0.00628344829537	-0.00509136534313	0.00279456368777	-0.00723188557221	-0.00329462217223	-0.00741284087818	-0.00135727205731	-0.00697422679908	-0.00314521860788	0.00124479695364	-0.00365106374448	-0.000864300104458	-0.00261577544711	0.00129865571999	-0.00904421826318	-0.00954873378478	-0.00754011540962	-0.00115346787205	-0.00117997547379	0.000270627736033	0.00490463141045	0.00408378512378	0.00573786244057	-0.00778443621458	0.0002063745675	0.000123844757308	0.00100062824681	-0.00420438743019	-0.000125672868427	-0.00420283992001	0.00481862322989	-0.00386339603718	-0.00684975363817	-0.0070716606392	-0.00620821592779	-0.00560460735973	-0.000168497859127	7.62985428447e-05	0.00462535145234	0.00533016403977	-0.00801756149951	0.00110631565767	-0.000162757959159	0.00168598025643	-0.00785047285387	-0.000340282278069	0.0072613114308	0.0111837027148	0.00368420831375	0.0182801632756	0.0115755084633	0.0141679319709	0.0112011077508	0.0125888578784	0.0117570196331	0.00398625551599	0.00465300998844	0.0115589505608	0.0114388904439	0.0166648127066	0.0087124277986	0.00527618126922	0.00219142870254	0.000637071007925	-0.00772154109144	0.00583618316519	0.00230606382505	-0.0172904101225	-0.00700483797763	-0.00424478018208	-0.00528130253122	-0.0110432831237	-0.000132287428534	-0.00332011344022	0.00227094638867	-0.00654966889985	0.000404728056646	-0.000720740058577	-0.00388740662916	0.00217327302388	0.0016505591953	-0.00458905290477	-0.00274370981506	-0.00655099543199	0.00937961844868	-0.00243708597066	0.00325894153149	0.00617795481004	-0.00172702323798	0.00320499375994	-0.00113754790633	0.00119791706482	0.00348823465112	-0.00246709210799	0.00225119408026	0.00618046056552	-0.0065044112928	0.00860210642955	-0.00328207282436	-0.0067472293653	-0.00107194037482	-0.0102402029601	-0.00379552112488	-0.00311210698596	-0.00420317805924	-0.0140517331313	0.000621003885557	0.00144009907779	0.00244290328059	-0.00462798542586	-0.00398779401945	-0.00440519495315	-0.00370363321329	-0.00342879028351	-0.00804815806048	0.00330868660006	-0.0157912843416	-0.00330730080338	-0.00396729523793	0.00473828924904	-0.00624299191904
