	0	1	2	3	4	5	6	7	8	9	10	11	12	13	14	15	16	17	18	19	20	21	22	23	24	25	26	27	28	29	30	31	32	33	34	35	36	37	38	39	40	41	42	43	44	45	46	47	48	49	50	51	52	53	54	55	56	57	58	59	60	61	62	63	64	65	66	67	68	69	70	71	72	73	74	75	76	77	78	79	80	81	82	83	84	85	86	87	88	89	90	91	92	93	94	95	96	97	98	99	100	101	102	103	104	105	106	107	108	109	110	111	112	113	114	115	116	117	118	119	120	121	122	123	124	125	126	127	128	129	130	131	132
LCL_act_chr1	0.00871055024054	-0.0089032463767	-0.00249509518067	0.000928697944046	-0.00468727847184	-0.00316784706813	-0.00554990236554	0.00129883201737	-0.00320371598533	-0.000802682951157	-0.00298105470689	0.00515018272757	-0.00825669826622	0.00559551647439	0.00863177646355	-0.00220295872015	-0.00158436810489	-0.0139684930822	-0.0020691027096	0.00431230543161	0.00609422300366	0.0122585254529	-0.00237921958715	-0.00178481828857	0.000628753805636	0.00145603325277	0.00840689390708	-0.00469286010367	-0.00401790498137	0.00508583140217	-0.0139657071638	0.000312224429687	0.00162533963316	0.0205330386176	-0.00865149652952	-0.00208360700498	-0.00159418289393	-0.0123050378521	0.00694750032336	-0.00263799502375	-0.00802602188588	-0.00123013701602	0.00229572089165	0.00711505528285	-0.00203506418379	-0.00672181472074	0.0030894595923	0.00903108289742	-0.00406834319556	0.00128979064863	-0.00136479104745	-0.000877596155304	-0.0100887560525	-0.00736275737704	-0.00513549525516	-0.00463235747548	-0.00375514020054	-0.0120045988643	-0.00248272839692	0.00503591255928	0.0163321846504	0.00319596936013	-0.000580962834236	0.00654500129054	-0.00440955454074	-0.00391289152527	-0.00526494019059	0.00480246616711	0.000981002600604	-0.00128405206236	-0.0161782517393	-0.0011713758791	0.00222525977484	-0.00771364216947	-0.00198687254122	0.00522900255977	0.00586354928599	-0.002389974386	0.0062979928876	-0.0128123866195	-0.0158798140319	-0.00506885643809	-0.00142724524562	0.0108278451458	-0.00359666167151	-0.011188682017	-0.00604366982779	0.00443084334936	-0.00438189715934	0.00408724575941	-0.00398515262864	-0.00582790712105	-0.00543262030009	-0.000689716288011	0.00353041097071	0.00825637973984	-0.00162101177165	-0.00396618988976	-0.00855513974921	0.00420179794429	-0.00168138916654	0.00760153853393	-0.00284780980776	-0.00605809214904	0.00206140944013	-0.00768752946099	-0.0137172854293	0.00386807464014	-0.00612067389871	0.00345672134058	0.00957441839618	0.00877123525538	-0.00845823825068	0.000202521843057	0.00988599279623	0.000276374103487	-0.0103933723126	-0.00449927374829	-0.00613189005449	0.00724584517104	-0.0109150964024	-0.00703316354617	-0.000854182375237	0.00456046274362	-0.00328153369402	-0.00894392597228	-0.00243030123134	-0.0139285642567	-0.00163886755744	0.00115593986861	-0.0047816546418	-0.00179889252342	-0.00786702916218
LCL_act_chr10	0.00771694613964	-0.00914191311524	-0.0026189121677	0.00447868103325	-0.0029753159971	-0.00103986215731	-0.00197115563879	0.000683185584646	-0.00250833278477	0.000643207146565	-0.00350760087572	0.000227817138023	-0.0059454475372	0.00651111283129	0.00893321711659	-0.00213736559188	-0.00331812911932	-0.0139469800878	-0.00357238894075	0.00511654315296	0.0067017938449	0.0109258717695	-0.00226723758886	-0.00287886336523	0.00290659552804	-0.000676911866331	0.00671743445955	-0.00274936838973	-0.000943181949874	0.00221506489737	-0.0104635990321	-0.00322601697699	0.00315579240452	0.017207773412	-0.00391965223395	-0.00416078686217	-0.000471992180502	-0.0121084184269	0.00973510946241	0.000535547768564	-0.00608902755109	-0.000568599524277	0.00490972319293	0.00563458586389	6.43405823122e-05	-0.00855423092276	-7.37426500168e-05	0.00640164891332	-0.00780938911318	-0.000285032901752	-0.00014704662792	0.00152268181157	-0.0115196787331	-0.010137423667	-0.00747429260649	-0.00483521226238	-0.00410693383353	-0.0120351280274	9.85752366946e-05	0.00153590554753	0.0130177408076	0.00232185099238	-0.00263606407013	0.00866494835221	-0.0059610812037	-0.00127091700495	-0.00539210730579	0.00443018813308	0.00245837597107	-0.0033634072284	-0.0144109114922	-0.00242212376675	0.00489528290014	-0.00530144857101	-0.00260627577774	0.00327326297787	0.00543965235094	-0.00185745381228	0.00231850498779	-0.0144778139804	-0.0163102242154	-0.00405296794269	-4.35563014662e-05	0.0116539126404	-0.000313997412116	-0.0133223802106	-0.00513617098285	0.00579068360626	-0.00400688132119	0.00612495618552	-0.00242144931203	-0.0071284268312	-0.00559374348184	-0.000367671883553	0.00237858972781	0.00828650555335	-0.00387098424409	-0.00452231232064	-0.00912588836211	0.00722898591967	-0.00117220572342	0.00716130442606	-0.00209857435389	-0.00756173571718	0.000997713496415	-0.00928395984077	-0.0144563383474	0.00356200209415	-0.00549696642126	0.0018166515616	0.00927304700504	0.00837792098242	-0.00825344551234	0.00137147473179	0.0111984403573	0.00109227655184	-0.0077448637837	-0.0025729369216	-0.00525873882079	0.00506560453676	-0.0119265715105	-0.00547505157223	-0.00123559867233	0.00365044258622	-0.00682216962516	-0.00649728828563	-0.000942015646974	-0.0144499250189	0.000791190249323	-0.00161220854251	-0.00782867925541	-0.00507122570887	-0.00649198364105
LCL_act_chr11	0.00746435439613	-0.009277415825	-0.000636549368134	0.00555504122244	-0.00339650330917	-0.00191238634178	-0.00256231454797	-0.000772004107621	-0.000897866937373	0.00368644382693	-0.00224816650145	0.00119709880972	-0.00554058877218	0.00797548267787	0.00643405248052	-0.00386852228775	-0.00287824167672	-0.0140332869308	-0.00100920613535	0.00356569172956	0.00675338268991	0.00864894986068	-0.00280434253967	-0.00127961568449	0.00214143502384	-0.00286361238991	0.00588357058482	-0.00332896856168	-0.00257956915555	0.00260942315664	-0.016044580282	3.60814561328e-05	0.00207693990729	0.0209065785038	-0.00664482283003	-0.00539088303339	-0.000982264177879	-0.00919659638879	0.00923991626913	-0.00281747808266	-0.00709298933072	-0.00128029227377	0.00673170860432	0.00578942262017	-0.00249784130338	-0.00656413645159	0.000445125240173	0.00432148587827	-0.00953021841477	0.00358208471722	-0.00108928464056	0.000286259023936	-0.0106907663751	-0.00940071848094	-0.00703644272118	-0.00289011338659	-0.00505149669856	-0.014188109622	-0.00458510659822	0.00341357837591	0.0126185469717	0.00350344853982	-0.000833361504181	0.00875993597453	-0.00269591421694	-0.00196046625274	-0.0101931681428	0.00494943964469	-0.000846296665438	-0.00408039343784	-0.0132828130072	-0.00140504221985	0.00243348688437	-0.0059139635344	-0.00326779644313	0.00221731773663	0.00467914441616	-0.000784365073035	0.00326293457644	-0.0118074052121	-0.0168968436584	-0.00432637271074	-0.00193806193623	0.00971322029659	-0.00249883677882	-0.0138299660574	-0.00370404491873	0.00440227433252	-0.00377869560655	0.00618364946727	-0.0050044939264	-0.00775173131634	-0.00674824446284	0.00138388402528	0.00330790493533	0.0088226036104	-0.00429160842393	-0.00697799130104	-0.0108050244295	0.00785734808521	0.00106888376045	0.00667111842751	0.0013690366135	-0.00580154503062	-0.000180960916648	-0.00756252927154	-0.0122700731851	0.00439870858288	-0.00642841392762	0.00409370169528	0.0105433141474	0.00912512344907	-0.0095655643177	0.00334144732658	0.0110803885675	0.0025297184847	-0.00898427320723	-0.00206569938607	-0.00401304212239	0.00239380845065	-0.0129312007899	-0.00436767941447	-0.0013896074198	0.007003477338	-0.00640420355495	-0.00411134527838	-0.000551315328064	-0.0102960884609	-0.00317358025139	-0.000720356946477	-0.00338210125106	-0.002389181345	-0.00689644550913
LCL_act_chr12	0.00904332033429	-0.00809465043913	-0.00100377811486	0.00544391426376	-0.00248951100485	-0.00159541480017	-0.00138849054901	-0.00111361753654	-0.0020832008104	0.000558874110232	-0.00205691445817	-0.00152870043602	-0.0052153854356	0.004002211233	0.00981394482254	-0.00164022568789	-0.00245845492626	-0.0168389496555	-0.00156481827805	0.00345699837789	0.00693697652856	0.00989264351725	-0.00632848194844	-0.00329860335729	0.00176053516244	-0.00159071708821	0.00794801124762	-0.00206186699056	-0.00269016352359	0.00165184286063	-0.0129730768686	-0.00218495050259	0.00443537804198	0.0209289331652	-0.00707940288904	-0.00470784633401	-0.00221029156414	-0.0126469251318	0.00980992947344	-0.000126795259766	-0.00791230063148	0.00102430559592	0.00654315494685	0.00621823173569	-0.000986893494385	-0.00804694411664	0.0005191580945	0.00682939629278	-0.00869021967413	0.00140782115167	0.0016520678244	-0.00145992870976	-0.0107644461107	-0.00807389243814	-0.00562961355841	-0.00533557595895	-0.00449680304363	-0.0118133999979	-0.00155935748612	0.00369744365027	0.0123430522251	0.00190851217423	-0.00244091685309	0.00907384221923	-0.00524433555961	-0.00123987798142	-0.00641059970984	0.00602000062295	0.00168434364245	-0.00548785672933	-0.0137338563911	-0.00175523091053	0.00352293766363	-0.00781535259201	-0.00335572988498	0.00154329998704	0.00797471165226	-0.00101949567408	0.00350719367794	-0.013225441909	-0.0150462117504	-0.00251085862538	-0.00165691399225	0.0104480471375	-0.00206220381559	-0.0120009468957	-0.00319196189699	0.00597541569358	-0.00446231900502	0.0034677000913	-0.00318528670366	-0.00537913691543	-0.00681331009512	0.000460444088951	0.00139492405425	0.00814991688124	-0.00366062513857	-0.00581264306253	-0.0104489502331	0.00758501653818	-0.000579929673465	0.00944358277365	0.000176471842528	-0.00670258911789	0.00445713954901	-0.0096625137779	-0.0144548646721	0.00484819938026	-0.00621907071931	0.00172319747099	0.0101772386453	0.0101362268952	-0.0117474501521	0.000669849764071	0.00882275238133	0.001634053055	-0.00953383117868	-0.00348761915471	-0.00367573608693	0.00445283310986	-0.0114004007422	-0.00518473850942	-0.00131759317557	0.00157170778429	-0.00634804121432	-0.00809693750675	0.000484059756247	-0.0116402248513	-0.00229088612872	-0.00231749153588	-0.00805823808775	-0.00521116038194	-0.00679162494853
LCL_act_chr13	0.00946240495965	-0.00864742985662	-0.00223883123926	0.0033691908224	-0.00301227375141	-0.000768625795048	-0.0027832074607	0.000487458748128	-0.00148992250136	0.000510511810614	-0.00390535889047	-0.000266101317058	-0.00544896938298	0.00468998303789	0.00821777427371	-0.00259089045446	-0.00277484813822	-0.0145824829332	-0.00155088791315	0.00431331336834	0.00762236619683	0.0105102831786	-0.00332421225325	-0.00130544202995	0.00153944656851	-0.00103000243783	0.0077493819938	-0.00133993890973	-0.00214992926424	0.00386269394761	-0.0132047327149	-0.0010397301602	0.00459848691784	0.0201473731104	-0.00567254541238	-0.00467295194257	-0.00329007768171	-0.0124287227276	0.00852663288519	-0.000557228927096	-0.00817899548534	-0.000503655385083	0.00554637265643	0.00783188376692	-0.00121260210748	-0.00803310101811	0.00064038660481	0.00722375779826	-0.00966187966221	0.00107250145015	0.00022294456981	-0.000267809579208	-0.0114332668725	-0.0086587052057	-0.00744773798021	-0.00381682024239	-0.0053700880478	-0.0115514784245	-0.00126964411249	0.00316030341884	0.0140594447407	0.00210579427046	-0.00131954450157	0.00917563605404	-0.00671770394291	-0.00283581428664	-0.00577322768525	0.00614712371827	0.00170511194449	-0.00418909166509	-0.0141846609284	-0.00249109920017	0.00236553424606	-0.00693073458961	-0.00271582515581	0.00280453685767	0.0067665404842	-0.00137363133251	0.00389527496091	-0.0148592645227	-0.0167039988936	-0.00315018797926	-0.00115901967681	0.00979918587215	-0.00157490549607	-0.0132280569419	-0.00364395073791	0.00476192694371	-0.00454856901748	0.00462985248591	-0.00336322903467	-0.00684383261114	-0.00569331423782	0.000661639696006	0.00281797185445	0.00785092298918	-0.00346954102145	-0.0057281897554	-0.0105176068357	0.00709907454958	0.000861191620095	0.00743136654404	-0.000505272237088	-0.00729548508911	0.00249749333461	-0.00911180509155	-0.0139977049972	0.00283438412385	-0.00676121968049	0.00321933596542	0.00965953722166	0.0095384192375	-0.00986255490467	0.00144973944031	0.0103030995913	0.00216827841501	-0.0103229484234	-0.00222886267332	-0.00399983020962	0.00342361342751	-0.0123403695451	-0.00452335102593	-0.00232809860959	0.00356182695948	-0.0060223485081	-0.00798345928715	-0.000321580372093	-0.0139433750668	-0.00234139423204	-0.00161246531192	-0.00591644639025	-0.00413074657397	-0.00826118270941
LCL_act_chr14	0.00846111531591	-0.00963437057297	-0.00165720996514	0.00303572046721	-0.00502941302591	-0.00224756430534	-0.00390352277316	-0.0010508462366	-8.78058830263e-06	0.000568559837724	-0.00361171414392	-0.00156893194026	-0.00686111012701	0.00379221478794	0.00816867530244	-0.00246427131578	-0.00240784125259	-0.0141514271193	-0.000238638458664	0.00465944919821	0.00652355021789	0.00932396207364	-0.000108296052164	-0.00180703054867	0.00259840487886	-0.000202451066548	0.00960611578716	-0.00237943449994	-0.00140163650481	0.00230762754915	-0.0112146347711	-0.000555440726835	0.00507814731652	0.0203219112074	-0.00321661401712	-0.00533065386491	-0.0029348672405	-0.0127327127794	0.00803648039476	-0.00049102261724	-0.007318990703	-0.00248423552783	0.00591192688445	0.00755306829484	-0.000252355651766	-0.00767344738147	2.26047292374e-05	0.00639963106994	-0.0105910691018	0.00169948057727	0.000186340155849	0.00151267830878	-0.0102763170613	-0.00704216705049	-0.00677270911899	-0.00494975960123	-0.00703938058642	-0.0123561666128	-0.00179456618317	0.00260498226873	0.013291729377	0.00131350886653	0.000121105947496	0.00854749972863	-0.00460890832396	-0.00155006199084	-0.00757332556253	0.00508457626383	0.00077623151773	-0.00349322363794	-0.0119526136851	-0.00111992689957	0.00300646614622	-0.00607109275641	-0.00438152020968	0.00200966192669	0.00448608001743	-0.00107762250309	0.00363444405554	-0.016654552085	-0.0147588054475	-0.00144786440731	-0.000597095572091	0.00913609880358	-0.00196450283895	-0.0125038590133	-0.00632713182967	0.0058944851816	-0.00457593817462	0.0048695501461	-0.00201462679326	-0.007108700868	-0.00565735206098	0.00104979870669	0.00116628434976	0.0081471259104	-0.00141798057921	-0.0053378525654	-0.0114218291428	0.00595113085646	0.00270408076784	0.00808724478596	0.000364728072977	-0.0108402200295	0.00166148746444	-0.00767300463816	-0.0155863799712	0.00360311499487	-0.00618206727967	0.00171317770848	0.00998582481742	0.0104152992073	-0.0092537835304	0.0024210154347	0.00681364170023	0.00179107907945	-0.00766753394047	-0.00141812982603	-0.00406525094034	0.00321924706028	-0.0120457783036	-0.00326430311812	-0.00285490138987	0.0034872150362	-0.00701106510196	-0.0075489633133	-0.00178453605069	-0.0134996557618	-0.00275237601088	-0.00330217482864	-0.00727116802359	-0.00213771123032	-0.00808496309329
LCL_act_chr15	0.00953059395649	-0.00944095201298	-0.000932644154573	0.0030575202713	-0.00357482931967	0.000215923140246	-0.00176421385142	0.000451581158799	-0.00189730491756	0.00229159018476	-0.00225431032541	0.000779381749584	-0.00748797504496	0.0052699418702	0.00699742679791	-0.00361958874853	-0.00230376408896	-0.0142645893008	-0.00153206966086	0.00393892855288	0.0064770242222	0.0104112383987	-0.00401144652353	-0.00243160863853	0.00259707739506	1.29834170921e-05	0.00721752445834	-0.0018734574152	-0.00310198826683	0.0015546195328	-0.0131512321165	0.000155716782139	0.00669046256472	0.0193326199569	-0.00512770045614	-0.00413131776142	-0.00135292297007	-0.00990721842845	0.0106091015363	0.000396215991165	-0.00669547269889	-0.00307405788744	0.00529507851211	0.006122884895	-7.5641068787e-05	-0.00760589348101	0.00133887357694	0.00870380851867	-0.00969180496396	-0.00020646315828	-0.000304733183479	-0.00116366001799	-0.012687180788	-0.00728999528066	-0.0069247360282	-0.00345178123949	-0.00415786906594	-0.0124117175168	-0.00323142617178	0.00338931023498	0.013043898102	0.00198875405604	-0.000628675592209	0.00810275391164	-0.00323052976796	-0.00152257279195	-0.00664550699474	0.00660290886771	0.00047653976881	-0.00511976813145	-0.0147444066848	-0.00399695876734	0.00291461027748	-0.00669102188531	-0.00278743829713	0.00246066438437	0.00753151095675	-0.0029162407999	0.00242629648891	-0.0127485005111	-0.0170221361429	-0.00290564462052	-0.00193709847344	0.0093846874403	-0.00266507047937	-0.0128699729323	-0.00592149659186	0.00296539528401	-0.00481459471983	0.00376451129973	-0.00213972331465	-0.00652552152265	-0.00460415239639	-0.000463853348162	0.00302465148118	0.00810402279744	-0.00062625066668	-0.00719905196626	-0.0106643520542	0.00738629436855	0.00170248039816	0.0063127207412	-0.000698008337889	-0.00633083291968	0.00266852788573	-0.00675970096055	-0.0165481364271	0.00399814015926	-0.00874404849813	0.00404145798185	0.0094808972899	0.00996077132278	-0.011149779578	0.00175730812435	0.00906631510293	-0.000967114289178	-0.0117548631685	-0.00175149961811	-0.0043462031423	0.00446489196858	-0.0113979531384	-0.00650125539847	-0.00242848320981	0.00407722929772	-0.00771216456108	-0.00757599518862	0.00250492435398	-0.0137923402812	-0.000443610644974	-0.00161785564831	-0.00713642543363	-0.00410668391756	-0.0066693494095
LCL_act_chr16	0.0111566683675	-0.0066675364297	-0.00166983767472	0.00106235925072	-0.00607229198191	-0.000674689571021	0.00106370558985	-2.15696054935e-05	-0.00339357903318	0.000651411318122	-0.00376507648627	0.00112536186704	-0.00522596009843	0.00380403384486	0.00866703957368	-0.00190871810638	-0.00126181700558	-0.0133690886381	-0.00107854842602	0.00572167798788	0.00596454532223	0.00999693409355	-0.00343447407208	-0.00239453209233	4.21722106971e-05	-0.00229514002503	0.00771616007638	-0.0043417574481	-0.000610505969835	0.00346783288149	-0.0135058445379	-0.00165994674162	0.00381373550435	0.0173847738912	-0.00534368123596	-0.00479531985088	-0.000393863486958	-0.0116475254196	0.0107236201463	-0.000186004760004	-0.0075656469869	0.000234086255152	0.00633489921964	0.00750218401944	0.000520880325725	-0.00707758719114	0.00024506727897	0.00543640626481	-0.008700651299	-0.00208718543742	-0.00137246678218	0.00131718119347	-0.00990037866019	-0.00746039088392	-0.00814661922005	-0.00205152097384	-0.00528383749155	-0.0136172959858	-0.00338191101549	0.00343701503445	0.014868147128	0.00241134423601	0.000447129444442	0.00749089813329	-0.00526331518787	-0.00229949644989	-0.00470793583165	0.00810818120671	0.00172785262318	-0.0034056715159	-0.0171450597834	-0.00128013704824	0.0028234882829	-0.00673902947686	-0.00526569056567	0.00262824418111	0.00935239582649	-6.19982211537e-05	0.00342412203961	-0.0129484834838	-0.0182571236853	-0.00154574338495	0.000928146076185	0.0106306761045	-9.69795522428e-05	-0.0139733109833	-0.00503359709673	0.00606780493717	-0.00567035322139	0.00472755293447	-0.00251628816268	-0.00891030377459	-0.00700328369301	0.00134339883186	0.0030195955104	0.00541076678078	-0.00448967411106	-0.00519983958475	-0.0105934676149	0.00709026072346	-0.000783380557278	0.00725906231702	-0.00262160688449	-0.00581676029543	0.00222020728984	-0.00881765096938	-0.0134892585508	0.00398680030179	-0.00694479890301	0.00227297543602	0.0105271786255	0.00646046810181	-0.0114548958944	0.00305083787094	0.00992624776533	-0.000331742194393	-0.0104039936266	-0.00182287235217	-0.00443998825553	0.00348678317913	-0.0126783940323	-0.00171144681606	-0.00224978288759	0.00349664829385	-0.00676607185733	-0.00898080707792	-0.00058865193586	-0.0123744571763	-0.00203132928949	-0.00333622113831	-0.007414117316	-0.0054075030221	-0.0073447450059
LCL_act_chr17	0.00908028967332	-0.00864958839283	-0.00120934205108	0.00218999607131	-0.00461917455559	0.00323358980806	-0.00217437193838	-0.00398991340859	0.00042231685679	-0.000127629963654	-0.00326036276378	-0.00107091472806	-0.00125484671357	0.00347556655898	0.00715188430421	-0.00343760740434	-0.000134442553992	-0.0133903923277	7.45431007035e-05	0.00454914535046	0.00538035182824	0.012314593672	-0.00158240401703	-0.00447723403717	-0.00151630427551	0.00171301260667	0.00557274902249	0.00222248412344	-0.00110860788417	0.00640586401082	-0.0104798718593	0.002887577339	0.00668462359739	0.0191247556283	-0.00647654092146	-0.00368696548501	-0.00131072008841	-0.0142975712317	0.00993061028268	-2.71772495693e-05	-0.00492499974112	-0.000451845204914	0.00786669172275	0.00740848740524	0.00139970380747	-0.00372713009067	-0.000777401504127	0.0086218024317	-0.00858090570254	-0.00075580656256	0.000776494747484	-0.00425203427934	-0.00625455292689	-0.00589350068651	-0.00438687364935	-0.00151549148988	-0.000940979843814	-0.0137905288677	-0.00283190669767	0.0012118043833	0.00877204054156	0.00229095701225	0.000186434346966	0.00903270963493	-0.00749362159924	-0.0033149078455	-0.00368474666926	0.00612980688091	0.00261129295055	-0.00665769499878	-0.0149228459428	-0.00148967076452	-0.000712804266822	-0.00845794046275	-0.00899587133789	0.00114210262234	0.00650750534805	0.000609770317057	0.00301163359027	-0.0146737379642	-0.0115144984929	-0.00123145740807	0.00105792222909	0.0093464288274	-0.00674257712997	-0.0133614381931	-0.00348531172645	0.00517142932734	-0.00424553963205	0.00220830271104	-0.00173878669045	-0.00423222207692	-0.00549372192162	-0.0027202089384	0.000470872376234	0.00210167488778	-0.00654090827818	-0.00455675960866	-0.00996728035915	0.00399117854946	0.000332777048964	0.00807680163638	-0.000995674262552	-0.00419838236997	0.0021117440872	-0.00708485299235	-0.0133712460832	0.00833693188211	-0.00753472868262	0.000240619268351	0.00837672898586	0.00651046027313	-0.00667693228957	-0.000495682784155	0.00831142044793	0.00319550149615	-0.00955370049165	-0.00566826759926	-0.00597620268805	0.000202780163673	-0.0103494700545	-0.00312923419458	-0.00301369192255	0.00356517388775	-0.00444083772146	-0.00636361514281	-0.0012109875654	-0.0176352312434	-0.00377666903031	0.000530386643307	-0.00584475207836	-0.00548187553519	-0.00456557029177
LCL_act_chr18	0.0104111685787	-0.0105043997141	-0.00222867232367	0.00358202358393	-0.00427210007362	-0.00316295058242	-0.000829788958688	0.00123442497796	-0.00175161095779	-0.000585241298257	-0.00315355841156	-0.000380910405859	-0.0054324557792	0.00462263898217	0.00836192001723	-0.00226640806596	-0.00311038593849	-0.0140849720764	-0.00216259613282	0.0048899933311	0.00568405821495	0.0111913649161	-0.00456959420821	-0.00173812001227	0.00154420573116	0.000351885284014	0.00727222662304	-0.00150450821421	-0.00241099702658	0.00185803375176	-0.0132875110377	0.00149953548998	0.00556931584822	0.0201668656041	-0.00646455152858	-0.00491999840915	-0.0025766517337	-0.0133184725527	0.00867385137846	0.000410718084087	-0.00736837195878	-0.000535400400331	0.00424578233525	0.00685429248625	-0.000869719059819	-0.00825127935231	0.000827257370383	0.00749887366323	-0.00837805819638	-0.000111605638171	0.000895077957284	-0.000767176358439	-0.0103523063107	-0.00727469564532	-0.00767937798888	-0.00532251857949	-0.00463939576715	-0.0101206195435	-0.00200930152101	0.00317641096573	0.0135960713718	0.00266838106992	-0.00149832989802	0.00804787309344	-0.00810192300012	-0.00239452256844	-0.00662698329417	0.00635121707923	0.00168652183829	-0.00368797945787	-0.0142740346218	-0.00372085508438	0.0010512411524	-0.00699202973933	-0.00372639659765	0.00172381838749	0.00577320735569	-0.00115408587822	0.0032702984045	-0.0141366237008	-0.0168004953447	-0.00286939977174	-0.00104664329745	0.0110461393228	-0.00139470492886	-0.0132816673398	-0.00565349428574	0.0035938448306	-0.00383386912834	0.00454848647643	-0.00337855703705	-0.00870136563123	-0.00622146773814	0.0012046968981	0.00212703485275	0.00880359387439	-0.00334795976568	-0.00611867624989	-0.0105958890714	0.00757301012558	0.000471808566896	0.00828677856383	-0.000954127855877	-0.00780841115599	0.00262323251273	-0.00844815685634	-0.0137482310065	0.0020953710727	-0.00643634304192	0.00287181419547	0.0108572244868	0.0116265305494	-0.0102876271435	0.0024285634334	0.0105062959084	0.00142571558936	-0.00847201679876	-0.00254281999948	-0.00527429036005	0.0043656612274	-0.0130045096774	-0.00434142160496	-0.00176938959506	0.00406986418105	-0.00590944720083	-0.00706368024974	0.000693049258538	-0.012252712447	-0.00317385985791	-0.00109413201028	-0.00597582954317	-0.00440076123686	-0.00819708648595
LCL_act_chr19	0.00963894478068	-0.00783542010687	-0.00155063070985	0.00386374842195	-0.00111742513093	-0.00217612308953	-0.00187443928297	-0.000992136783611	-0.00171953683935	-0.000590447534244	-0.00540458766618	-0.001828302045	-0.00478057145995	0.00405344107589	0.00840273826544	-0.00350231258002	-0.00216398943704	-0.0135722005283	-0.00282218062015	0.00336850720151	0.00465649036268	0.00963618573077	-0.00372839409035	-0.000239702212281	0.00217641678009	-0.000903802176358	0.00474469802116	-0.000728974095266	-0.00165218482917	0.00360460561088	-0.012536065963	0.00172428961697	0.00421053295671	0.0205691734882	-0.00424684552474	-0.00508301873984	-0.00459813636007	-0.0129952723913	0.0071141788797	0.00210749494981	-0.00495766026844	-0.00265221441963	0.0033481624352	0.00906117832003	-0.00482560966893	-0.00866080441014	0.00354731088323	0.00633054416568	-0.0104118505297	0.000927354661444	6.83936187967e-05	0.00178915752062	-0.0122578824841	-0.006784051304	-0.00719334278355	-0.00526417463499	-0.00411539834806	-0.010702443451	-0.00283267970812	0.00169221689011	0.0122946929458	0.00307274260805	-0.000562157428341	0.0042614077382	-0.00436197236694	-0.00236457881235	-0.00617909779126	0.00438358486485	0.00285406128279	-0.00270587452131	-0.0121436322084	-0.00167508925516	0.000964776450383	-0.00621243649892	-0.00477078668515	0.00141945259204	0.00567842335908	-0.00168929890746	0.00341322826459	-0.0116995465632	-0.0158257484281	-0.00394745840287	0.000473860237294	0.0128260765339	-0.000947497465314	-0.0126051481579	-0.005707133366	0.00417409151413	-0.00519975651524	0.00221102959167	-0.00187086930347	-0.00632735902306	-0.00411789057089	0.000720937726789	0.00212207436361	0.0101234847617	-0.00488397003663	-0.00554079846784	-0.00863081710915	0.00851636073027	-7.374117068e-05	0.00713947789135	0.00129694150993	-0.00974259199572	-0.000223149813198	-0.00783603702902	-0.0130231650795	0.00080061230606	-0.00365906862555	0.00476945825868	0.00752244405604	0.0100240789653	-0.00785957762503	0.00164222030136	0.00780160249477	0.00378753980043	-0.0105207570052	-0.0050560073566	-0.00440206271379	0.00295023127104	-0.0116204498371	-0.00305482731786	-0.00174204514998	0.00443570458169	-0.00641226118216	-0.00602759961291	0.00143417290744	-0.0128644033916	-0.0013503547378	-0.00152655475402	-0.00632377579981	-0.00537322601346	-0.00889606921548
LCL_act_chr2	0.00975145099824	-0.00960267464166	-0.00181009661627	0.003166094146	-0.00389359563353	-0.000955274145371	-0.00109661996984	0.000152384829106	-0.000964734591139	0.00147258141204	-0.0029341879364	-0.0032051349599	-0.00524830354842	0.00666561525782	0.00974374040379	-0.00321888588828	-0.00120772682144	-0.0141542853321	-0.0027458997929	0.00512094895899	0.00529663031452	0.00978885610743	-0.00248768051116	-0.00164628919731	0.00216355434911	0.000978157185303	0.00809898278159	-0.000146013236564	-0.00172837712402	0.00250931758764	-0.0127838009065	-0.000479243741086	0.00519798232874	0.0188446411356	-0.00701646399921	-0.00304842538466	-0.00103427128753	-0.0133895139214	0.00753222211491	0.000905902761051	-0.0106782143307	-0.00124883773838	0.00521062307364	0.00687694703301	-0.00237227790426	-0.00902493145117	0.000381937197144	0.00637017519108	-0.00819134357331	0.000382278825358	0.000978470976509	-0.00137197520715	-0.0100951652003	-0.00786534233049	-0.00533214587075	-0.00341246965551	-0.00308230908706	-0.00940686275839	-0.00268597614455	0.00416298660331	0.012067933138	0.00212200116963	-0.00194493853465	0.0102465557186	-0.00640293680255	-0.00184322845666	-0.00410705668552	0.00380017154325	0.00195606971377	-0.00173490627939	-0.0146600242038	-0.00433900024802	0.00264605401687	-0.00833276882006	-0.00360314212341	0.00137235508851	0.00777105199217	-0.000607426375304	0.00460430050965	-0.0130333846714	-0.0166639031174	-0.00644791178796	-0.0022087867891	0.0115718891402	-0.00174615042496	-0.012299935454	-0.00334148344923	0.00303990605192	-0.00335656721906	0.0054339152841	-0.00401550281765	-0.00812523937337	-0.00594036830648	0.00207775933839	0.00203857602523	0.00857302942575	-0.00318937561058	-0.00415100361089	-0.00988219604233	0.00808491321717	0.00187215410545	0.00911131316751	-0.000921563946069	-0.00695305758499	0.00176438511633	-0.0083688089273	-0.0133848509786	0.00424297821657	-0.00515032461982	0.000388943339854	0.00884480841568	0.0107641441496	-0.0117601924665	0.00322995596436	0.00868970546654	0.00113036062947	-0.00971362547191	-0.00320563149802	-0.00495318803705	0.00311683153889	-0.0134326919353	-0.00646495902851	-0.0031230293656	0.00210345683854	-0.00704589006769	-0.00615868493708	-0.00111984544701	-0.0139093060651	-0.00354472820964	-0.0015681599294	-0.00856072289008	-0.00341522566627	-0.00907312153194
LCL_act_chr20	0.00793414738798	-0.00915033837544	-0.00167886861961	0.00398749073538	-0.0037394171905	3.65331226836e-05	-0.00153475884418	-0.0014090824918	-0.00120934983949	-0.000467965222516	-0.00358052914791	-0.00156443963093	-0.00491994368516	0.00497276643412	0.00527706315687	-0.00291324599032	-0.0030348918739	-0.0128634227486	-0.00283878413721	0.00411816387821	0.00763040525881	0.0106071456558	-0.00319016114631	-0.000568127925054	0.00299790875594	0.000851868319488	0.00927100560111	-0.0030254029686	-0.00122587964008	0.00236070277317	-0.0144175929709	0.000377974985854	0.00545336171772	0.0205881866029	-0.00604841680122	-0.00380908804837	-0.00141717726536	-0.0122214878717	0.00689557264614	-0.0025075483555	-0.00796497105377	0.000970915576781	0.00401095632201	0.00590688082862	-0.00220327228454	-0.00650146436456	0.00247756098501	0.00631861019767	-0.00960220614172	0.000935116275057	0.00137082497906	-0.000165885119863	-0.0107065350059	-0.00810027059083	-0.00713658016363	-0.00565589471102	-0.00552699994913	-0.0121092260506	-0.00200377330709	0.00349215337414	0.0134915287758	0.00292901660565	-0.00136786452588	0.00882375377364	-0.00645269087186	-0.000837619572208	-0.00503928983068	0.00507389223386	-0.000854340099759	-0.00417675057117	-0.0146275271888	-0.00451850894334	0.00203902625582	-0.00633994491499	-0.00157825846233	0.00178693013055	0.00484647768784	-0.0016814702052	0.0043265133464	-0.014354334446	-0.0159459211924	-0.00433781094251	-0.00194236174088	0.00943589422592	-0.000350004709901	-0.0127691546333	-0.00481190501913	0.00400523181356	-0.00492350336068	0.00205616242799	-0.00462028751621	-0.00679367281806	-0.00607812766116	0.000181150616309	0.000905167449529	0.00924211160764	-0.00328676905274	-0.00736629782157	-0.011525225938	0.0052551478641	0.00170433945015	0.00748922836766	0.00155459174522	-0.00710720904012	0.00286228493453	-0.00999461554283	-0.0152545808567	0.0022908666179	-0.00818847318399	0.00170867292423	0.0105650085325	0.00966094317544	-0.00867175926497	0.00190874191536	0.00955865914454	0.00335183502512	-0.00854837789577	-0.00328132289745	-0.00404448472181	0.00379358412974	-0.0103266842473	-0.00463845272204	-0.00255463354424	0.00460888439113	-0.00504089594905	-0.00841440612758	0.00118539171824	-0.012897874551	-0.00185636767427	-0.00123936655877	-0.0052309631903	-0.00102186972127	-0.00628295124702
LCL_act_chr21	0.0093575629229	-0.01009961343	-0.00231888845075	0.0039550887085	-0.00311640596378	-0.00156383520517	-0.00204958182419	0.000549149518304	-0.00273423282964	-0.000498270128602	-0.00376440410853	-0.0023172453082	-0.00464622120677	0.00579454192592	0.00856712323371	-0.00210428590414	-0.00309639079728	-0.0145860500383	-0.00310180264034	0.00487818692521	0.00679958398972	0.0100558116161	-0.00338279544396	-0.000873570708864	0.00133866311829	-0.000500229838983	0.00744914334487	-0.00285964869409	-0.00251081959998	0.00394433116658	-0.01245499023	0.00074017132093	0.00502548551917	0.0202512060313	-0.00682386727961	-0.00460466924621	-0.00163380326807	-0.0122379198199	0.00852497614274	-0.000801331904101	-0.00775874191168	-0.000986117818983	0.00548285515034	0.00620857591311	-0.000781409015793	-0.00823372203894	0.000262642122363	0.00589244791796	-0.00859818033868	-0.000275297726888	0.00044122166806	-4.16184579241e-05	-0.0104400073339	-0.00879410847504	-0.00684625708367	-0.00269615948449	-0.00624135340371	-0.0120134052855	-0.00253570996848	0.00397125780955	0.0137697463342	0.00287538023776	-0.000335425094679	0.00947310293844	-0.00578070225899	-0.00269802220012	-0.00618987892623	0.00467457290385	0.00100358752233	-0.00397303833889	-0.0160705338612	-0.00308223864195	0.00134428872526	-0.00668261004453	-0.00325833278719	0.00358313725459	0.00594944872803	-0.00165919412831	0.00449663439721	-0.0153201923424	-0.0168978416133	-0.00206825872555	-0.000853421093127	0.0104441149434	-0.00166294252058	-0.0129276519376	-0.00365879872851	0.00474062392146	-0.00563374099568	0.00532712400084	-0.00375366147387	-0.00694550570438	-0.00634944808205	0.000890635484599	0.00105090467612	0.00746053641197	-0.00366026665526	-0.00548086964472	-0.0105879927887	0.00717389583829	8.60362670752e-05	0.00818071056482	-0.00116446535102	-0.00719589878132	0.00303170416949	-0.00811991896683	-0.0144640964754	0.00397001539347	-0.00528409717579	0.00273314689197	0.0108311002768	0.00939687842699	-0.0102511727702	0.00183883508821	0.00899955341163	0.000492908043489	-0.00854106108015	-0.00158958047869	-0.00468305802104	0.00339359917426	-0.0123261842475	-0.00472145781345	-0.00256297460789	0.00469369864629	-0.00495723023793	-0.00706082737026	-0.000529646631057	-0.0129187271523	-0.00317692653857	-0.00139471719573	-0.00600153774392	-0.00437821300944	-0.00846922541426
LCL_act_chr22	0.00776572541088	-0.0070650386617	-0.000579729204407	0.00293053839888	-0.00366632521082	0.000723428415658	-0.000758503617579	-0.00150785288389	-0.00292494829711	0.000366749964173	-0.00284199908802	-0.000398925796675	-0.00406956976554	0.00433861481465	0.00780677616764	-0.00386369517578	-0.00168870519197	-0.0145514902768	-0.00174970537111	0.00410663939991	0.00819235397773	0.00951936257127	-0.00308831817269	-0.00228311826342	0.00128266684808	-0.00225195372057	0.00804638672195	-0.00260857293737	-0.00378467765977	0.00296842668337	-0.0150793257019	0.00111781574921	0.00461369240483	0.0200769664925	-0.00658737807794	-0.00175595427742	-0.00262809748727	-0.0127016984695	0.00880401975846	0.000984075018005	-0.00851937341405	0.000163916995764	0.00529774851404	0.00789802360489	-0.000969614177805	-0.00926059594894	0.000668694091938	0.0074814534182	-0.00914162310287	-0.00165122018661	0.00062386900128	-0.000369437514896	-0.00963566621221	-0.00809197693972	-0.00699290994151	-0.00379886110295	-0.00391708264591	-0.0123742942162	-0.00186574748014	0.00243930868761	0.0136985311822	0.00200469490912	-0.00147303807562	0.00884900461281	-0.00699589203107	-0.00284452552302	-0.00598535190127	0.00394754804247	0.000395946537037	-0.00368916526469	-0.0144177829893	-0.00330728761969	0.00286633132975	-0.0070733299482	-0.00278139240818	0.00389976945533	0.00722407789712	-0.0018134229375	0.00469905288001	-0.0132094476024	-0.016940962437	-0.0048621239306	0.000857575480243	0.00893342796041	-0.00127483206595	-0.0143620090145	-0.00521767287596	0.00411203467808	-0.00579647015445	0.00428755740768	-0.00403300350529	-0.00814037581079	-0.00353913870884	0.00184575229716	0.00167260531449	0.00895956991766	-0.00223931727383	-0.00686160694647	-0.0103619927989	0.00712205586425	0.000147489615752	0.0076183044239	-0.00226123762932	-0.00696298482958	0.00327147419516	-0.009589163356	-0.0139062991177	0.00279525005239	-0.00356471680994	0.00373539616682	0.0103813421067	0.00857893241948	-0.011569919519	0.00206967380429	0.009208144552	0.0023143430766	-0.00973675145869	-0.000839455537077	-0.00425643192743	0.00434093448577	-0.0112510246762	-0.00498437102793	-0.00256304469495	0.00347150955823	-0.0067538605866	-0.00803152557912	-0.00111540173583	-0.0119700117049	-0.00253037542957	-0.000565131987264	-0.004751619962	-0.00588782905929	-0.00959696447296
LCL_act_chr3	0.00980025509029	-0.00775167534739	-0.00266092418792	0.00426656821161	-0.00289335169938	-0.0030407364247	-0.00278665643651	-0.00131027837745	-0.00383798470998	0.000728678712481	-0.0021528046903	0.000958494594903	-0.00548235911609	0.00416737390327	0.00863047913656	-0.00263358926542	-0.00255370015352	-0.0145313398137	-0.000905864418621	0.00340763075981	0.00524022633402	0.0121589967113	-0.0016540881191	-0.000749250435678	0.00226599040112	-0.000155631510645	0.00669300317151	-0.00177594066387	-0.00253936856916	0.00281969886021	-0.0125254502505	0.000742025167709	0.00613792831502	0.0191896793685	-0.00533533437401	-0.00625153098274	-0.00201111366093	-0.0140138168817	0.00879631688925	0.00060643173972	-0.00698526221012	0.00189347317376	0.00402687071502	0.00465920187797	-0.000320332963593	-0.00719291573674	-0.00187764976977	0.00554814783289	-0.00914026106495	0.00117893493199	-0.00012837774213	-0.0013482556976	-0.0104112222167	-0.00683019742187	-0.00580192839627	-0.00198822839695	-0.00415129775747	-0.0106922804396	-0.00268048687469	0.00363117042972	0.0140839784102	0.0015725099683	0.00064363445143	0.00741767132383	-0.00624488729453	-0.00401673173443	-0.00870355454124	0.00361941985058	0.00363163330352	-0.00411421087231	-0.0165068613291	-0.0025110680888	0.00309964058503	-0.00657997474211	-0.00487589698342	0.000966094501327	0.0076087437556	-0.0010905698242	0.004884399771	-0.0142626493801	-0.016935890067	-0.00332914336529	-0.000972339488733	0.01176638289	-0.00197147678194	-0.013925363008	-0.00353858438819	0.00366799751853	-0.00341615909694	0.00422601470696	-0.00448057985602	-0.00567996202559	-0.00392090608332	0.000840417694414	0.00527222585792	0.006811027507	-0.00343417635629	-0.00527493035237	-0.00745251080726	0.007376735577	0.00050821405998	0.00586454039566	-0.00101898713588	-0.00598635805598	0.000680012145448	-0.00684679126952	-0.0110012870761	0.00409518087472	-0.00810889080698	0.00268570514377	0.0103558595101	0.00774030239505	-0.0133113681438	0.00252026794138	0.0109772060665	-0.000624666486589	-0.00880193244242	-0.00321274034957	-0.00550224566376	0.00464417477996	-0.0119066405166	-0.00389312765754	-0.00128751919976	0.00260218546264	-0.0056596465194	-0.00826201442655	-0.000198625324726	-0.0135344758834	-0.00218445006578	-0.000286427523352	-0.00662225734962	-0.00292042605272	-0.0074833414318
LCL_act_chr4	0.00996132964308	-0.00865741704407	-0.00207716458869	0.00370976118844	-0.00468810312725	-0.00187835671702	-0.00322683500333	9.10291754966e-06	-0.0027590670815	-0.00202037916148	-0.00168995444943	-0.00193982048234	-0.00373489706521	0.00464954608465	0.00946098877763	0.00066001271671	-0.000853260404433	-0.0133734652008	-0.00150943034128	0.0043381496539	0.00661184457258	0.00713740003963	-0.00315339458447	-0.00297774301229	0.00188226277278	9.9691853924e-05	0.00696539505615	-0.000910498852346	-0.00173723301373	0.00266976663967	-0.0135475801026	-0.0011520288089	0.00463285863643	0.0197989636396	-0.00420236827244	-0.00508553482054	-0.00237779204373	-0.014486653401	0.00788060695736	-0.000156203731427	-0.00831454518942	-0.000844056103912	0.0050502872755	0.00913391748658	0.000419321452263	-0.00596365161476	0.000573681219035	0.00865156885558	-0.0111016456269	0.0022239399692	-0.000586469556272	-0.000232816227632	-0.0110869674602	-0.00983004905278	-0.00762793839581	-0.00327364533765	-0.00500614683771	-0.0115049120014	0.000151895432528	0.00333897605043	0.0133515351131	0.00315815685428	-0.00104031359295	0.00808244911353	-0.00566535616654	-0.00242057446122	-0.00528504124897	0.00538475323782	0.000613719748794	-0.00284672204724	-0.0152525585515	-0.00208280643601	0.000933294156816	-0.00695883686849	-0.00489134944265	0.00377162757685	0.00676328865023	-0.00237767352357	0.00348017296055	-0.0137422758345	-0.0168350927505	-0.00160588925736	0.000214252233104	0.00956369619168	-0.00159892371359	-0.0140266561107	-0.00672663326105	0.00655009648563	-0.00536492730468	0.00325964000311	-0.00260528451707	-0.00705712947578	-0.0069562971485	-0.000796271738242	0.000826858265643	0.0102275090548	0.00058476905719	-0.00419533640409	-0.00868801163967	0.00755933378258	0.00044660839228	0.00702010071491	-0.00184429058693	-0.00763272356813	0.00192026231484	-0.00861013537611	-0.0113026172472	0.00444516413344	-0.0061168495569	0.003011753486	0.00902362995971	0.00854062627101	-0.00877393933016	0.00201960107056	0.00938852210065	-0.000191105163397	-0.00990855232713	-0.000848367146089	-0.00533996350591	0.00469916278684	-0.0112310160704	-0.00367680450099	-0.00152373404101	0.00436599345053	-0.00684282406772	-0.00782988324256	-0.000336219225469	-0.0122266414788	-0.00349130429173	-0.00401323139814	-0.00658717427276	-0.0028568618422	-0.00797913139643
LCL_act_chr5	0.00755691084689	-0.00766598389401	0.000167267515847	-0.000192703770636	-0.00481407450789	-0.00269436126175	-0.00192021514959	0.00106194662336	-0.000188954294147	0.000948195675741	-0.00154930967493	0.000147637414808	-0.00383983410395	0.00436731703363	0.00811092091245	-0.00301589652558	-0.00112590114152	-0.0158978230904	-0.000511384084135	0.00454471547834	0.00844481394894	0.0106348267205	-0.00524586836872	-0.00211153348593	0.00136702121162	0.000397469948749	0.00787304617241	-0.000741705340743	-0.00239408834215	0.00416181939998	-0.0124960209522	5.92727477683e-05	0.00624673816596	0.0210055144371	-0.00492180987413	-0.00458963754075	-0.00278867141849	-0.0165981232441	0.00875666843107	-0.00225869351186	-0.00650229010157	-0.00208583705061	0.00474728559632	0.0066608247985	-0.00129933595699	-0.00712405226665	0.000395184467383	0.00918563138078	-0.00784636849627	0.000532054346426	-0.000240193174421	0.000389006339778	-0.0109120710618	-0.00858509055268	-0.00681480395777	-0.00546913939138	-0.0045088798732	-0.0113787449816	-0.00208131002536	0.00288461124402	0.0115447940112	-2.53112444468e-05	-0.00125631867815	0.00785749010724	-0.00523296748549	-0.00349817519115	-0.0078395365375	0.00576451493346	-0.000266138444773	-0.00341854207829	-0.0139834430045	-0.00589003984351	0.00230438960423	-0.00528358977231	-0.00344101010332	0.00391836937088	0.00554112657076	-0.00207362472887	0.00456594102291	-0.0141646190667	-0.0173728929749	-0.00377844612632	-0.000169392102457	0.0122844376201	-0.00244976191753	-0.0133414838437	-0.00353254101061	0.00576839573299	-0.00455243586959	0.00232182730853	-0.0026995245465	-0.00870674327076	-0.00543200134636	0.000939266476929	0.00165630194454	0.00860770989946	-0.00317853488445	-0.00476739753967	-0.0100746094549	0.00655680109503	0.000937128236337	0.00784155531595	0.000683498819794	-0.00673289944837	0.00100023484632	-0.00755637923758	-0.0119686914397	0.00427346285968	-0.00860753104401	0.00337255608572	0.0112918095689	0.00826115904696	-0.00941530438804	0.000724689867682	0.00830889668466	0.00156327390005	-0.00911130283567	-0.00206565684742	-0.00392930552153	0.0034974167706	-0.0114048378976	-0.0051415577726	-0.00168774105393	0.00386264185267	-0.00639821691513	-0.00722144334469	5.50194354153e-05	-0.0143128047891	-0.00172467265849	0.000749265252094	-0.00554124065296	-0.00698072939929	-0.00707161482118
LCL_act_chr6	0.00688471946897	-0.00688071464611	0.000195548279795	0.00195511911013	-0.00387310130054	-0.00100134983289	-0.000709292831188	0.000468554253467	-0.00198067698633	0.00119685245921	-0.00292132674707	0.000814774975736	-0.00495815826765	0.00377923429729	0.00760888235023	-0.000744589770579	-0.00606376667984	-0.0126678195254	-0.00424340256962	0.00371244583495	0.00503639186699	0.0117915864832	-0.00417834285123	-0.000205242113441	0.00359740906933	-0.000407441680979	0.0104992276998	-0.0021041831178	-0.00133179066809	0.00529379025035	-0.0100884386177	-0.00134142303534	0.00617189820563	0.0196903900227	-0.0068762452182	-0.00574890422708	-0.00378579008379	-0.0140719376002	0.00897533339892	0.000241145172692	-0.00719836377024	-0.00305087263916	0.00291212978972	0.0057312317393	-0.000448623219462	-0.00752225025088	-0.00112937501233	0.00929210118784	-0.00820931798807	-0.000548569403869	-0.000200169982007	-0.000970293915605	-0.0110337289205	-0.00687674814018	-0.00700428813405	-0.00225174214619	-0.00429785518443	-0.00970544051358	0.000477369597748	0.00385193054762	0.0144802990943	0.000753410874312	-0.0032523215298	0.00909811447774	-0.00541271584403	-0.00235683345408	-0.00411498770384	0.00439397769439	0.00284527240029	-0.00408435489844	-0.014000704274	-0.0036368738687	0.000774451781678	-0.00702901267758	-0.000920742184035	0.00281896945591	0.00733997132911	-0.00151220483277	0.00441442146997	-0.0123084326631	-0.0160346181155	-0.00368162732185	-0.000114064431829	0.0129175707347	-0.000172997872162	-0.0143339085261	-0.00339955438495	0.00438628034378	-0.00339873501342	0.00458038250542	-0.00769948867855	-0.0102928478141	-0.00857428723864	-0.00018283784463	0.00249682895313	0.00650362411369	-0.00412663152644	-0.0041733618152	-0.0102905625782	0.00719330562837	-0.00227848732285	0.00615877008479	9.14859996185e-05	-0.00789538741454	0.0047509629502	-0.00957139773539	-0.0126890804526	0.00155613642887	-0.00622650144407	0.00264398397022	0.00795404337078	0.0116739081479	-0.011766381845	0.00331690868112	0.00721279457579	0.0029627843038	-0.00858368149027	-0.00308105217018	-0.00375745480398	0.00517253189521	-0.012271627496	-0.00791222538297	-0.00211573775485	0.00287000534548	-0.00258044194515	-0.00724370063343	-0.000698150772158	-0.0111012216245	-0.00451840095644	-0.00454613464125	-0.00533962157108	-0.00530521365644	-0.00523370520617
LCL_act_chr7	0.0114709644338	-0.00778391812056	-0.00162473587711	0.00157111763965	-0.00343966812226	-0.00219179547112	-0.000262714429791	0.000852763374319	-0.00216302596403	0.000484857357598	-0.00121241105232	0.0010136281729	-0.00386882148993	0.00424437772996	0.0075265770397	-0.00241032312822	-0.0049466489004	-0.0136256113901	-0.00312970590628	0.00466966590475	0.00653088134669	0.00927725015804	-0.00299053725466	0.00031983390753	0.00132756607249	-0.00145001917344	0.00639736992115	-0.00141055434147	-0.00208185426827	0.00295996673729	-0.0116239671237	-0.00127995138722	0.00548606980724	0.0217046217676	-0.00605041157633	-0.00379862272474	-0.00138457765779	-0.012429802315	0.00745128951758	0.00107417094942	-0.00546686392365	-0.00247649019168	0.00618330769903	0.00728117914828	-0.00228756364678	-0.00593562631543	0.00285877565807	0.00680111826439	-0.00864919614636	0.0018143672268	0.000452209916268	0.000525786301398	-0.0104855452919	-0.00671689465246	-0.00710915388644	-0.00537443219525	-0.00502477426833	-0.0124040882408	-0.000219500400289	0.00267422793038	0.0129403095372	0.0019330646975	-0.00141928861634	0.0106939109145	-0.00516450114282	-0.000709140115936	-0.00605695105978	0.00581694627554	0.0014538506648	-0.00380853822893	-0.0139278856846	-0.00389291761638	0.00315975621267	-0.00645445801003	-0.00312691515648	0.00214088835694	0.00703171921438	-0.00418246710422	0.00365009772096	-0.0125864843429	-0.0179272701312	-0.000150554759145	-0.00117224342989	0.00944624650213	-0.00262426964501	-0.0121157449293	-0.00598232404532	0.00394849228972	-0.00345405526185	0.00423297079005	-0.00431820189634	-0.0079305000124	-0.0100600952812	-0.00225092372202	0.00332570079066	0.00575450537122	-0.00543498658949	-0.00477970813172	-0.00991257914837	0.00426138027239	-0.000162738752195	0.00585054305339	-0.0013216612222	-0.00824384760693	0.00274822064139	-0.00872122320242	-0.0127979449653	0.0049602027199	-0.00495978861524	0.00423932437539	0.00844304402175	0.0082352132961	-0.0100989934947	0.00123737351259	0.0116626027991	-0.000319660018365	-0.0065137719849	-0.00176781268221	-0.00756798458378	0.00211861302386	-0.0128464199174	-0.00651426620051	-0.00508848866688	0.00497786062119	-0.00650931735756	-0.00967444035805	-0.00136161952774	-0.0132663802738	-0.00255416778506	0.000696358312818	-0.00155559931924	-0.003040760848	-0.00901778242143
LCL_act_chr8	0.00990451791997	-0.00856071882127	-0.00167436926672	0.0039568975485	-0.00423726442508	-0.00175802636126	-0.00152905662132	0.000592137938767	-0.00121425402152	0.000237242419941	-0.00222100295789	-0.00149298372514	-0.00508627090279	0.0051920091543	0.00624845143958	-0.00218868809815	-0.00257406818386	-0.0162219848408	-0.000458193328436	0.0058774317599	0.00656145346628	0.00954602506871	-0.00287835914272	-0.00112874187654	0.00202918445492	0.0013140453426	0.00816522340768	-0.00123998603114	-0.00345620259073	0.00322185789212	-0.0141827001926	-0.000515216284607	0.00508352875336	0.0181400522084	-0.0062512863177	-0.00629225401374	-0.00336843706042	-0.0131990630612	0.00830511175637	-0.00129890402793	-0.00969735339431	-0.000688193423574	0.00630783521108	0.00819835310719	-0.00112319994776	-0.00814361018336	0.00135465860106	0.00802512255424	-0.00919914101981	0.00172145025798	0.000418462755938	0.00178830120054	-0.00955034332245	-0.0100661063651	-0.00747330754397	-0.00513834202057	-0.00274595350136	-0.0117095264298	-0.00155523450696	0.00457178312049	0.0137453606575	0.0019929046111	0.00114088049792	0.0103156722942	-0.00691346549169	-0.00359814032946	-0.00652156469377	0.00448353088027	0.00127026824026	-0.00439981225632	-0.0135957320794	-0.00431953384966	-3.4336064885e-05	-0.00671225778707	-0.00438149640677	0.00148489843957	0.00463202621949	-0.00157299724886	0.0056755638872	-0.0138130221289	-0.0163931646732	-0.004108176573	-0.00215586211789	0.0116157996028	-0.00234133330599	-0.0151474464696	-0.00387549083802	0.00502776704273	-0.00407390447375	0.00497106239051	-0.00218554751131	-0.00856990617735	-0.00349392482207	0.00168454584445	0.00281519070257	0.00823533814653	-0.00263754981075	-0.00665714711312	-0.0108626847323	0.007116590696	0.000329520739673	0.00819646080031	-0.00163287161789	-0.0075074801358	0.0024137076382	-0.00840324929819	-0.0129429955413	0.00417728657145	-0.00740993235015	0.00291608604203	0.00886697348929	0.0127241330431	-0.00939633623122	0.000978704028977	0.0106329039938	0.00124552101495	-0.00955087416595	-0.00235388196913	-0.00371571630502	0.00356140381241	-0.01281462628	-0.00575422813097	-0.00190109103008	0.00270022379614	-0.00575701066269	-0.00698661418027	-0.000492765321845	-0.0129959618177	-0.00376045273169	-0.00136705329313	-0.00592917006874	-0.00417670514159	-0.00695261050506
LCL_act_chr9	0.0100945488577	-0.00655672787062	-0.00106514460544	0.00510542161777	-0.00311197118441	-0.00112639364378	-0.00476907973194	0.00122474253076	-0.00149750886445	0.00234525197177	-0.00335967678936	-0.000513626779585	-0.00359436645948	0.00428933161706	0.00836504905816	-0.00369406438414	-0.0015021179492	-0.0137749102067	-0.00225377509989	0.00415250247122	0.00590261081991	0.00953236890888	-0.00355289327046	-0.002540521005	0.00305383635673	-0.000131166145334	0.00627982647893	-0.00421174497561	-0.00190869437741	0.000994824275768	-0.0120204035775	-0.000221449283678	0.00474806075738	0.0206653405977	-0.00748510739139	-0.00369368416287	-0.00283842025344	-0.0109396798974	0.00874705822368	-0.000273338316979	-0.00839229406238	8.92704672943e-05	0.00284477987927	0.00691857954595	-0.00158293835116	-0.00731315848184	0.000213854880683	0.00852255323242	-0.0090710195264	0.000810357819941	0.00127153842817	-0.00100310373677	-0.0106495827051	-0.00905064339568	-0.00903999723965	-0.00424443960616	-0.00382649526465	-0.0112765596889	-0.00221021681298	0.00263826366671	0.0131866338392	0.00355209248603	-0.000550169738743	0.0090990338416	-0.00791591955552	-0.00329247347889	-0.00618965772969	0.00570507470307	0.000401036315348	-0.00338377351618	-0.0139070562441	-0.0024387519306	9.47737592909e-05	-0.00620928587628	-0.00303207246901	0.00226633829968	0.00528562959029	-0.00139263483598	0.00545606085074	-0.0143753703936	-0.0170143105081	-0.00172125585451	-0.000231082926521	0.0125731162338	-0.0026942468998	-0.0129356105078	-0.00513251385671	0.00479388718781	-0.00552053218746	0.00351318229162	-0.00323637137303	-0.00665375097316	-0.00557396125798	0.00165838516622	0.00120263632733	0.00661800687476	-0.00398129118891	-0.00368357679337	-0.0101971877956	0.00732519205875	-0.000921528136062	0.00758578927644	-0.000295757864693	-0.00803570341596	0.00223528605602	-0.00986902610711	-0.0136309103438	0.0019327190805	-0.00735042839563	0.00239449307762	0.00984021357897	0.0108180216352	-0.00905818083478	0.00262673436325	0.0113315616163	0.00107842397581	-0.00789014427035	-0.00193490849161	-0.00580149951692	0.00424268193949	-0.0113115649594	-0.00418733150465	-0.000253844697885	0.0032405895668	-0.0062724434577	-0.00802254634951	0.00139055094084	-0.0145123715075	-0.00350434314907	-0.000957034997714	-0.00729359030841	-0.0049689205833	-0.0090878558405
