	0	1	2	3	4	5	6	7	8	9	10	11	12	13	14	15	16	17	18	19	20	21	22	23	24	25	26	27	28	29	30	31	32	33	34	35	36	37	38	39	40	41	42	43	44	45	46	47	48	49	50	51	52	53	54	55	56	57	58	59	60	61	62	63	64	65	66	67	68	69	70	71	72	73	74	75	76	77	78	79	80	81	82	83	84	85	86	87	88	89	90	91	92	93	94	95	96	97	98	99	100	101	102	103	104	105	106	107	108	109	110	111	112	113	114	115	116	117	118	119	120	121	122	123	124	125	126	127	128	129	130	131	132
K562_act_chr1	0.00175582132527	-0.00225337356941	-0.00936063950222	-0.00180645181882	0.00791365760862	0.0110688623271	0.000443446164047	0.00383232277069	-0.00608984086448	-0.00988161099624	-0.00467952834537	0.000798040981578	0.0012733337036	0.00179319613296	-0.00324726105146	-0.00222710042127	0.00368166355526	0.000677314081223	-0.00397700479172	0.00770547590386	-0.00724610314119	-0.00663271115426	0.000299467219951	0.00692602526689	-0.00542927693879	-0.00172593591197	0.00208656838592	0.00374167861199	0.000742657747582	-0.00382698535966	0.00668967911752	0.00265978751576	-0.00538692750641	0.00306252530176	-0.00723478487288	-0.00526186448023	0.00139920598268	0.00598394040559	0.00540999319754	-0.00523769920838	-0.00343490900849	0.00336240291482	-0.000158096654855	-0.0142565795958	-0.00507005188071	-0.00806422850502	-0.00605195205182	0.00166934935842	0.000659158033066	0.00120901033552	-0.00428102917064	0.00181973142813	-0.001987628357	-0.00164641311547	-0.0022169573159	0.00017296407206	-0.00358985900094	-0.00476891617585	-0.00268616080045	-0.00170698292838	-0.00267504211905	0.0071713792741	0.00985499128633	0.00215011297842	0.00804773079104	0.00594953788771	0.00704426223754	0.00561078270517	0.00510522302882	0.00260786816218	7.75225080512e-05	0.00282727119527	-0.00204077793814	0.00543951553792	-0.000773611296739	0.00490558925032	-0.000755674325917	0.0108179555053	0.00642433401769	-0.014573252419	-0.014798841325	-0.00589987825959	-0.000382556316747	-0.00461603377774	-0.0101673857323	-0.00374064353627	0.00020974968994	-0.00369285238382	0.00301362759988	0.00609194325762	-0.00906804761586	0.00318249266597	-0.00268493801167	-0.00162896525461	-0.00515500601735	-0.00958291127503	0.00384894592689	-0.0025458253894	-0.0168096216272	-0.00697231397944	-0.00314684906453	-0.00507272274183	0.00317813927283	-0.00822189834283	0.00896858942766	-0.0147822833569	-0.00618266259297	-0.00140339399344	0.00286962648691	-0.00109507388248	0.0042911684693	-0.00613766573209	-0.00397949072242	-0.00217803219567	0.000793712038312	-0.00646855411804	-0.00988349186865	-0.00717967250207	-0.000862148971047	-0.000189927796729	0.00528973461184	0.00260621919855	-0.0114214270434	-0.0104397665413	-0.00289789200906	0.00568423751487	-0.00953307326012	-0.0105914961016	-0.00366899608198	-0.0011854433074	-0.00576871205971	-0.00334139528465	-0.00229423567837
K562_act_chr10	-6.67707723348e-05	-0.0021861261054	-0.0108929801954	-0.00205539473571	0.00907744572531	0.0119752746493	-0.00410082070746	-0.000885025003052	-0.0109222508724	-0.0108924281925	-0.00506257876809	-0.00132193510281	-0.00345140780098	-0.00169628258849	-0.00244263869606	-0.00215442619897	0.00123217438201	0.0013816975341	-0.00245987056858	0.00751238458348	-0.00548758095333	-0.00917762094881	-0.00327823770723	0.00800862600367	-0.0039969343935	-0.000394924929924	0.00212323020051	-8.05767836182e-05	0.00115939253623	-0.00133032808009	0.00308467090082	0.00375285732574	-0.00526170923446	0.00488992626413	-0.0043228970593	-0.0087705747292	0.00305371150338	0.00568392756204	0.00517273917971	-0.0055668710668	-0.00312289126195	0.0060462751953	-0.00304884211851	-0.0147831889886	2.76221389832e-05	-0.00802975228214	-0.00785108599331	0.000582971427393	-0.00189183113369	0.00161018609186	-0.00651454897234	0.00310052956147	-0.00340943725161	-0.000707292708586	-0.00170053073123	7.78432054535e-05	-0.00221300671556	-0.00749795289971	-0.00196714427675	-0.00172769947552	-0.00143023365803	0.00635199793584	0.00785285989977	0.00399564337882	0.0103512767351	0.00764669802433	0.00759954027234	0.0038344514004	0.00948331640405	0.00178709754281	0.00367201889488	0.00255726027709	-0.00400216556083	0.0064762610626	0.00217133657827	0.0043193136485	0.000494853614248	0.0086765479956	0.00813439402633	-0.0138493500543	-0.0133760610573	-0.00888443390741	-0.000314104368915	-0.00582705565735	-0.0124765774964	-0.00539877124012	0.00128843797769	-0.00158538941056	0.000919765263596	0.00805744490363	-0.00791137619178	0.00205131679542	-0.00171839698668	0.000894424267743	-0.00661760440772	-0.00856298824066	0.00307411814837	0.0007900310044	-0.0150508894369	-0.00840931674547	-0.00337069934736	-0.00301244529375	0.00308658779916	-0.00758790596236	0.00887929341232	-0.0141396081077	-0.0041643965336	-0.00461745228314	0.0030123242296	9.11162602369e-05	0.00581264191326	-0.00567020226426	-0.00378633925853	-0.00263417121588	0.000914560189222	-0.00875582957467	-0.00917764299646	-0.007944521209	0.00118302436748	-0.00152745599125	0.00573883022291	0.00355050292591	-0.0138643195463	-0.0119180026215	-0.00356186399852	0.00459406152538	-0.00975629025683	-0.00870907289496	-0.00207429788183	-0.00255022005211	-0.00580572152946	-0.00454944550056	-0.0034009343838
K562_act_chr11	0.00195405636625	-0.0017049991961	-0.010497495226	-0.0017886578935	0.00884409877198	0.012026927481	-0.00277508711281	0.000362000127558	-0.00524351781882	-0.00852729841255	-0.00567808944969	0.000121306737943	-0.00183559183387	-0.000724959591731	-0.00759749668481	-0.00335589287089	0.00291661226735	0.0029344047528	-0.00212139078975	0.00479031492203	-0.00790956935505	-0.0094149634568	-0.00323376232373	0.00396567724891	-0.00544812914797	-0.00130809579288	0.000456486693792	0.000989346974567	0.0016487591093	-0.00193318479627	0.0051012088497	0.00411228127206	-0.00401778410631	0.00736010631559	-0.00368788817965	-0.008727702385	0.00163994843749	0.00578591728949	0.0059564469831	-0.0027239400838	-0.00316441114092	0.00558439980857	-0.00492305651123	-0.0152094109049	-0.000459991612778	-0.00875181714738	-0.00614806287174	0.0011211388262	-0.000831717744319	0.0047722698548	-0.00380933337254	0.00553672473511	-0.00214655304918	-0.00192424707697	-0.00077336642622	0.000915912639161	-0.00530923448168	-0.00693065322294	-0.00471417306538	-0.00204398899073	-0.00248716081358	0.00598539332534	0.00703754119437	0.00612914157736	0.00665087691149	0.00716816457228	0.00701234861426	0.00764261928183	0.0072995666795	0.00149384149931	0.00515132645736	0.00307045171865	-0.0032133610064	0.00749139548032	0.00196314536585	0.00454188783629	0.000109961300973	0.0106761057659	0.0063849507311	-0.0143115516782	-0.0142569082084	-0.00843740961284	0.00135800262379	-0.00357788770192	-0.0111968096646	-0.00532281989034	-0.00162581990814	0.00106256676116	0.000990515881502	0.00496337126995	-0.00985537046377	0.0028231617461	-0.00416189470412	-1.51792776279e-05	-0.00874613874081	-0.00767345651775	0.00427665959983	0.000758422144565	-0.016984860999	-0.00578456647917	-0.0034988075377	-0.00258578621138	-0.0017674939158	-0.00943287417701	0.00968145677071	-0.0147222326826	-0.00652170221784	-0.00359471685257	0.00740837808652	0.000849148374364	0.0057959595353	-0.00416997712472	-0.00215290385371	-0.00294260823502	-0.000217034418897	-0.00706608498142	-0.0112032148112	-0.00832094769926	-0.00173962813817	-0.00379279461325	0.00386535331186	0.00261240902137	-0.0150529186735	-0.0110555693961	-0.00552900079803	0.00364458789918	-0.0103124136669	-0.0100433251802	-0.00452927247364	-0.00108622818469	-0.0045504381095	-0.00439223100384	-0.00270001703334
K562_act_chr12	0.00252768818728	-0.00319155359393	-0.0105863287163	-0.000580607435901	0.00845422308484	0.01309829398	-0.00289421830164	-0.000499279757426	-0.00528436042509	-0.00865239638073	-0.00597275927713	0.000578866678648	0.000554393777847	-0.00240394908405	-0.00513506377816	-0.00504140549487	0.0017308072104	0.000378557435977	-0.00331182091631	0.00815383931072	-0.00536208703862	-0.00640086921983	-0.000165284622391	0.00727279760554	-0.00345738273808	-0.0016778924903	0.00174462489619	0.00248038970301	0.00225571672582	-0.0026128324948	0.00325547306552	0.0020510718407	-0.00634644021359	0.0042686418661	-0.00370461402489	-0.00641671539624	0.00387866564333	0.00764879825369	0.0060074136044	-0.00342057756033	-0.00161097936155	0.00462168476007	-0.00154953121738	-0.0144753446214	-0.00164324331499	-0.00779694992701	-0.005404731402	0.0021638447492	-0.000737031995856	0.00470326561559	-0.00281415663059	0.00334672791077	-0.00267984207828	-0.000317439946718	0.000516118758799	0.00128462363436	-0.00279031741077	-0.00891945970673	-0.00371160394155	-0.000106654541272	-0.00319201394338	0.00397396061969	0.0068134571864	0.0068664479696	0.00760075960046	0.00801250354787	0.00747685552983	0.00300503072966	0.00891794483361	0.00355774852822	0.00239787654181	0.00349932479153	-0.00489269119407	0.00530004088925	0.000968483254182	0.00481134106292	-0.00239078466483	0.0103278054366	0.00539726277002	-0.0155978933377	-0.0156235266665	-0.00676895123702	0.000223107964538	-0.0029847320586	-0.0104571950949	-0.00890784235508	-0.00092371028938	-0.000711003994205	0.000251046215407	0.00629913499119	-0.00937717943479	0.0031991556873	-0.00320574522053	-0.00209542179448	-0.00626136337537	-0.00815645643162	0.00437251169948	-0.00224737460212	-0.0187527722838	-0.008791756672	-0.0054799158258	-0.00476910463123	0.0021001738233	-0.00743533769269	0.00840250045101	-0.0154415717595	-0.00714784326764	-0.00123315887604	0.00526476216431	-0.00181704928108	0.00532779356138	-0.005099159046	-0.00443891344035	-0.00472791842917	0.00106933099969	-0.00685518763753	-0.0106030165199	-0.0076281154058	-0.00159069997542	-0.00250033643606	0.00361714254153	0.0019207253461	-0.0127445318973	-0.0130545212824	-0.00189344792449	0.00334009739203	-0.0114889880199	-0.0111716506977	-0.00229213355347	-0.00179615240191	-0.00322386667433	-0.00294450477352	-0.000913467676315
K562_act_chr13	0.00228039850525	-0.00273316036465	-0.0128390803332	-0.00168413082158	0.00800461724355	0.0115104666078	-0.00327720802444	6.5578339697e-05	-0.00754970352171	-0.00799008725892	-0.0048254002728	0.000316558245234	-0.000376031348978	-0.00134668458284	-0.00651534365063	-0.00358107748581	0.0023542151565	0.00287290686198	-0.00306347450146	0.00636006364812	-0.00648415043291	-0.00628324398751	-0.00156599647837	0.00512312421558	-0.00612228019522	-0.00371976111379	0.00115075752896	0.00117171978669	0.00180505645406	-0.00108922631892	0.00548615304302	0.00279848059685	-0.00516879986179	0.00670941444556	-0.00571904093913	-0.00640653220575	0.00216514065277	0.00722361311552	0.00518050363427	-0.00218222239656	-0.00267802881542	0.00517864665462	-7.05635097272e-05	-0.0137536715025	-0.000536242900855	-0.00864002669316	-0.00564678340992	0.0023435246102	-0.00201335493622	0.0042602778726	-0.00489955649215	0.00339639383698	-0.004769259224	-0.000186601385784	0.000383136775989	0.000101796694647	-0.00291823746222	-0.00898477604999	-0.00346527792471	-0.00164087580789	-0.00369034194606	0.00591692152065	0.00854330005685	0.00453881382078	0.00818107675785	0.00670793023099	0.00768807759536	0.00337289638903	0.00864283779308	0.0040599955211	0.00245233774488	0.00235028582604	-0.00463265465505	0.00635558251959	0.00229843384181	0.00461128480355	0.000116843933279	0.00967779147982	0.00712075846018	-0.0152595591223	-0.0146027945649	-0.00554546155451	0.000359689268652	-0.00259986598247	-0.0121832945949	-0.00724119361823	-0.00120728021092	0.000673178396801	0.00151087092861	0.0060374895034	-0.00824741801983	0.00413989724146	-0.00452191552796	-0.0017886294002	-0.00752562985145	-0.0103227830535	0.00186038431185	-0.00120181626129	-0.0163512582699	-0.00880101310243	-0.00364088904694	-0.00441769426574	0.00106927669817	-0.00791060126418	0.0094609118371	-0.0147639030464	-0.00736922811267	-0.00190778746358	0.00585819147811	-0.00217469578448	0.00617032045829	-0.00493791440057	-0.00423000015052	-0.00349669413556	0.000942031283568	-0.0078269654953	-0.00971177512112	-0.00811685794582	-0.00338138544188	-0.00442456690553	0.00395718031045	0.00476942816108	-0.0131203493613	-0.0116639265406	-0.00214456062674	0.00397681878071	-0.0107459176275	-0.0103059878051	-0.00338929443132	-0.000666966807288	-0.00444554612749	-0.00167883428459	-0.00163160288728
K562_act_chr14	0.00116304187626	-0.00411832435291	-0.0117243415862	-0.0020934983136	0.00605878048717	0.0103534562962	-0.00317278119499	0.000308768457158	-0.00792544913148	-0.00941941060954	-0.00537660041903	0.000354828817154	-0.000355137239308	-0.000895568453767	-0.00572300538369	-0.00317676010972	0.00268251538884	0.00397567596204	-0.00302291018339	0.00791573444031	-0.00794154204687	-0.00829642436637	-0.000504935842295	0.00638649833554	-0.0071121349951	-0.00193168490618	0.00131805873712	0.00330563802552	-0.000786489747878	0.000302761887482	0.00539481808957	0.00351625978487	-0.00561420818384	0.00610750104201	-0.00414697702414	-0.00789815222596	0.00188031779332	0.00721135386978	0.00621429559235	-0.00421490228945	-0.00219821001204	0.00272755040324	-0.00267417638281	-0.015825850168	-0.0010995783116	-0.00827917959069	-0.00809189181423	0.00124082658966	-0.00190729835328	0.00160355379238	-0.00441979036958	0.00254465321008	-0.00422686411204	-0.00109295307777	0.000144736975686	0.000411928233616	-0.00178491402813	-0.00904436242162	-0.00288717387912	-0.00170158675213	-0.00562037451335	0.00445882441433	0.00738756242322	0.00485603956544	0.00650336231308	0.0076126363588	0.00852360291002	0.00674466542466	0.0096809214646	0.00404851330199	0.00305904347001	0.00531486466068	-0.00271310176667	0.00667615377682	0.00141883387114	0.00480093327392	0.000148922371679	0.0102300465381	0.0076664424341	-0.013820320508	-0.0162746708295	-0.00697171894521	-0.00157984695915	-0.00274599961552	-0.0123921112095	-0.00521100659755	-0.0010039402022	-0.00117919260007	0.00108821380832	0.00553351901725	-0.0085565737598	0.00328357070577	-0.00477789403117	-0.000605029277298	-0.00719662561744	-0.0112677050553	0.00331418553381	-0.00173317554218	-0.0181127284448	-0.00800348101243	-0.00324307304836	-0.00211304923538	0.00147711520387	-0.00838102494926	0.00929711093135	-0.0136417062995	-0.00792711883266	-0.00176752629638	0.00542814840769	-0.000545841204026	0.00508660387792	-0.00367210541127	-0.00514642799187	-0.00421061756333	0.00112443444539	-0.00825439704105	-0.00994581350085	-0.00634917218673	-0.000827945518105	-0.00427670093744	0.00418650555756	0.00307872306742	-0.0137718778955	-0.0133272203322	-0.00321928578704	0.00247127085548	-0.0120693628746	-0.0101558186985	-0.00325685776124	-0.00254180638079	-0.0061519534163	-0.00471941528847	-0.00330358101091
K562_act_chr15	0.00321810212232	-0.00376552679512	-0.011110147013	-0.00401063859105	0.00688102692383	0.0113435429572	-0.00319828562353	0.00195021091865	-0.00763489295437	-0.00765150524816	-0.00541337480031	0.00044510039253	-0.00446411820743	-0.0018644484504	-0.0048711854553	-0.00424057586526	0.00159069281618	0.00315467658164	-0.00234343070309	0.00892277709518	-0.00711301604046	-0.00818839497085	-0.000922461542902	0.00478634657371	-0.00444049066404	-0.00239667852294	0.000740959933114	0.000761768452988	0.00139837718619	-0.00091527769277	0.0049275162129	0.00431904951038	-0.00620347806238	0.0065157119492	-0.00330076925527	-0.00867527055961	0.00148251598496	0.00736883285904	0.00647277569814	-0.00281175311858	-0.00304312149135	0.00576448916054	-0.00439838696996	-0.0131285617426	-0.00337475657542	-0.0109420756495	-0.00564219571385	0.00418435555253	-0.00141993632093	0.00424456569632	-0.00424970124208	0.00588469570857	-0.00331438921196	-0.000707511466302	-0.00170622407157	-0.000160802560443	-0.00449979467957	-0.0101319542211	-0.00244008093823	-0.000880876385253	-0.0031849785187	0.0055588623609	0.00762688033491	0.00671209481692	0.00689542804337	0.0064667118171	0.00686275599591	0.00429835340765	0.00668310514747	0.00237858125805	0.00281572361038	0.00553882270399	-0.00351232558916	0.00522386417062	0.000944386994052	0.00348510873542	-0.000348998865632	0.0105035923356	0.00697847021681	-0.0128371396024	-0.0148447868143	-0.00642529852918	0.00159862389918	-0.00432693376905	-0.0122733044046	-0.00400365003318	0.000720411553796	-0.000356475810535	0.000149564325532	0.0064720248701	-0.00643733347028	0.00477327288678	-0.00414485601288	0.000843451312255	-0.00664873423026	-0.010690908845	0.00121313267664	-0.00118932716816	-0.0164311680816	-0.00740285295444	-0.00465390487808	-0.00460775666415	0.00181804898549	-0.00789975626925	0.00684930359193	-0.0157592270476	-0.00785472385274	-0.00297542017229	0.00296894014305	0.000388468809383	0.00344173873158	-0.00437007640453	-0.00459278780395	-0.00417376838176	0.00228366982541	-0.00607711867348	-0.00977520354721	-0.00764385213743	-0.000926148923075	-0.00332068075137	0.00538757351206	0.00447356700541	-0.0135655638744	-0.0118601037157	-0.00214712470584	0.00431341415004	-0.0102356099349	-0.010759408292	-0.00263043813406	-0.00176010374185	-0.00629702690602	-0.00215139207162	-0.00250142028109
K562_act_chr16	0.000121660438379	-0.00399685985887	-0.0106968145389	-0.000351891519606	0.0052709818405	0.0112904339892	-0.00276512759451	0.00245026433185	-0.00988053322062	-0.00925026344762	-0.00714239342494	-0.000406492160163	-0.00153676792559	0.000276369552979	-0.00756797112464	-0.00328864407535	0.00234843205639	0.00381216159199	-0.00217071311875	0.00609252440562	-0.00678444071157	-0.00625509159479	-0.00212591936162	0.00343391242544	-0.0066706766354	-0.00357825415941	0.00194820067813	0.00156585782484	0.00243988483173	-0.00269855180823	0.00315906653225	0.00374620548071	-0.00655452375275	0.00602568534733	-0.00517533828613	-0.00634828977123	0.000897342730536	0.0052027918052	0.00588568222318	-0.00225513680646	-0.000420666512555	0.00718090709541	4.06272343584e-05	-0.0112055134948	-0.000478178030692	-0.00891336655062	-0.00671620637158	0.00379935458077	-6.36184234082e-05	0.0032145109469	-0.00308960486668	0.00372068250658	-0.00196619111306	0.000660938523742	0.000456257098859	0.000722551278695	-0.00197238727764	-0.0100082402891	-0.00414521735132	-0.000426393605766	-0.0011252200286	0.00619763700008	0.00845325880515	0.0052079383525	0.00852895378188	0.00807315599287	0.00639237205375	0.00290415953864	0.0112665437665	0.0032654925907	0.00318190558864	0.0025039587699	-0.00182603540494	0.00949042034082	0.00284209168136	0.00302359776329	-0.000101863704493	0.00964830573517	0.00896348219116	-0.0161395903404	-0.0179863303559	-0.00818297196676	0.000918012193569	-0.00324557377334	-0.0142125081502	-0.00574448043297	-0.000491248912916	-0.000868438005526	0.00105591380004	0.00722056392185	-0.0102150816868	0.00241617716574	-0.00506753341069	-0.00160735630389	-0.00681424430153	-0.00897235131413	0.00275869250998	-0.00068235556376	-0.0160779651385	-0.00595062091908	-0.00438714257456	-0.00385471390482	0.000572688385452	-0.00946244076464	0.00958682766894	-0.0147265574864	-0.00591334855523	-0.00253777216471	0.00378244762872	-0.00384818360262	0.00465003037308	-0.00719173463996	-0.00673566738702	-0.00435086034631	0.00136298040092	-0.00787224717697	-0.00889747168183	-0.00729037388166	-0.00171695624643	-0.00157093345956	0.00284668908688	0.00533251487401	-0.0116429772042	-0.0110975652733	-0.00327054116397	0.0039561384684	-0.0100030838741	-0.0114277954905	-0.00456590715244	-0.00288757733368	-0.00605564601128	-0.00158929714523	-0.00342396368009
K562_act_chr17	0.00361459016545	-0.00345784155209	-0.0111421179591	-0.00295523427039	0.00909380538061	0.0138804888912	-0.00406698125297	0.000859464657963	-0.0054145389871	-0.00791413198426	-0.00356745525215	-0.00168962643919	-0.000882144472002	0.00208118091433	-0.00653948678978	-0.00448876485324	0.00191397304612	0.00343592228633	-0.00105318730606	0.00691178272062	-0.00700162665809	-0.00641849715036	-0.000529331378966	0.00609609676529	-0.00631189512915	-0.00314851451567	0.00129617893856	0.00124214341873	-0.000433092386343	0.00105589408547	0.00386636952034	0.00298529297821	-0.00621968143929	0.00542693241815	-0.00576085378673	-0.0072790238061	1.09236013661e-05	0.00921563688069	0.00661237439959	-0.0052103499839	-0.000224677676108	0.00653957016675	-0.000583097574335	-0.0151482212737	-0.00320019606096	-0.00832627471843	-0.00564282597069	0.00283772724162	-0.000222278112616	0.002136713611	-0.00486361151859	0.00326325489823	-0.00428920734263	-0.00184760910983	-0.00268779925408	0.000206455336396	-0.00248854318008	-0.00742447229946	-0.00101961345395	-0.0013610616193	-0.00519290293566	0.00474615640922	0.00748523620548	0.00565689657667	0.00763403987029	0.0058301411851	0.00638282146464	0.0039929428503	0.0101512712031	0.00363556485746	0.00214570848961	0.00300259832723	-0.0038292777589	0.00872786715107	0.00247111653565	0.00270880627663	-0.000182635337208	0.0122691566585	0.00886588146164	-0.0148757878084	-0.0164695048902	-0.00528338430463	0.00052995122949	-0.00359065635513	-0.0120539132996	-0.00505811555589	0.00251187305951	-0.00225555791204	4.31471888214e-05	0.00785524971803	-0.00734573863899	0.00327911818985	-0.0011583603027	-0.0015584894655	-0.00501742144121	-0.00955375443283	0.00288323623365	-0.00323256036809	-0.0154762453311	-0.00840598784027	-0.00413510542181	-0.00436540531913	0.000476430525274	-0.00837103991891	0.00847127029636	-0.0145463673714	-0.00595254429572	-0.00100746225426	0.0057490381734	-0.00270367100423	0.0030100754864	-0.00464014851352	-0.00558724453077	-0.00220205838768	0.000895850390057	-0.00998383770814	-0.00968154932565	-0.00887025328082	-0.00230664683046	-0.00295950709807	0.00324198850495	0.00426573776639	-0.0129098247778	-0.0127248763012	-0.00376351282879	0.0040458703377	-0.00992803558825	-0.0110792272251	-0.00271333288832	-0.00396196466917	-0.00527477164413	-0.00214760975343	-0.00425404923343
K562_act_chr18	0.00282979209778	-0.00212574003295	-0.0111042920439	-0.00193595510044	0.00835289057833	0.0116306397614	-0.00221192502989	0.00161449868775	-0.00671032487787	-0.00966585302419	-0.00567092290925	0.000935126049565	-0.00139353695171	-0.0016467718662	-0.00438329227115	-0.00377978609374	0.00113839966535	0.0013981363464	-0.0029841801087	0.00618349573265	-0.00802920956328	-0.00903781225406	-0.000936667084498	0.00457427617043	-0.00402448459892	-0.00251973181296	9.3116573632e-05	0.00111964902979	0.00110701540307	-0.000774383315846	0.00359689034312	0.0015851235194	-0.00577722468015	0.0065337150544	-0.00537185011691	-0.00831852271978	0.00137038639211	0.00575140302431	0.00588862328338	-0.00341427603373	-0.00180963412407	0.00600199770584	-0.0017007237149	-0.0139697535885	-0.000813251218966	-0.00953024441695	-0.00734367585853	0.0032221511787	-0.00138864051531	0.00342847842562	-0.00537708495048	0.00415956111506	-0.00340422684215	0.000340603812448	-0.000569599205538	0.000934848971631	-0.00216534895382	-0.00900176075783	-0.00237315026039	-0.000925149115928	-0.00314189038354	0.00415148212577	0.00769688829635	0.00449547621771	0.00625988022094	0.00780923122413	0.0107297631736	0.00559226630885	0.0101712414321	0.00382246953891	0.00302672020089	0.00291196684027	-0.00395233546851	0.00546471812217	0.000877885216038	0.00376985098083	0.000112211060283	0.0113073514837	0.00781169658387	-0.0132023464954	-0.0149399494807	-0.00596581145914	-0.00012772274884	-0.00325626910648	-0.0111706614196	-0.00457527978123	-0.000237428925274	0.000154808382695	0.000511483926733	0.00607837710298	-0.00921568944622	0.00172308538104	-0.00379450067774	-0.000630280054278	-0.0059740454265	-0.0104695408203	0.00295010052526	-0.00181609883725	-0.0177425646397	-0.00760274317357	-0.00296151856	-0.00316390758375	7.38591409892e-05	-0.00772675884526	0.0095951301859	-0.014427726474	-0.007168519029	-0.00292313458626	0.00560178877851	-0.000828656202649	0.00604514536767	-0.00484022944032	-0.00322052182825	-0.00218305095159	0.00150859703312	-0.00787569110228	-0.0103759928457	-0.00752663596868	-0.00258447567862	-0.00314136199623	0.00347231187553	0.00416063579744	-0.0157932426693	-0.0118807013666	-0.00291546895512	0.00372724049043	-0.0112872083762	-0.0121148764689	-0.00300310988256	-0.00249498433253	-0.00590869833435	-0.00281972259346	-0.00172340090681
K562_act_chr19	0.00271896599225	-0.00564867082488	-0.0111337143395	-0.00346448062694	0.0083276432266	0.00985775242671	-0.00559247944095	-0.00131093275326	-0.00931525187841	-0.0117147884442	-0.00499407369284	-0.0014120731401	-0.000396577040587	-0.00201604253289	-0.00669504884228	-0.0042153564028	0.000440649130599	0.00387077595992	-0.00646141372118	0.00709890331741	-0.00383727851273	-0.00781390593298	-0.00204864520006	0.00816458746582	-0.0046499846972	-0.00374792395157	-0.00249988564032	-0.000492364655643	0.00232241021741	3.66829812397e-05	0.00501246754702	0.00112733734253	-0.0042883261982	0.00628171830976	-0.00460094230279	-0.00782261963017	0.0011938638157	0.00330395739707	0.00552362576616	-0.00230790287193	-0.00246639898039	0.00615433287986	-0.000171134312701	-0.0130583587417	0.00113691056622	-0.010840819552	-0.00748066168082	0.00406436326414	-0.00115537579325	0.00477590784256	-0.00189860816755	0.00270068155812	-0.00191068431425	-0.00223079388983	-0.00125621846413	0.00407606561346	0.00132818583269	-0.00845897438049	-0.00455878022645	-0.00106717303864	-0.00249641979193	0.00473736075936	0.00726165378109	0.00417347293795	0.00774484386001	0.0072084976334	0.00661548821463	0.00561896719292	0.00745896729785	0.00393481583268	0.0032121103542	0.00330091908339	-0.00269548621124	0.00580060790539	0.00264677345759	0.00390611781485	0.00175681027771	0.0097185728288	0.00820273957188	-0.0149379178665	-0.0157443981212	-0.00848467494168	0.00110298563608	-0.00334571966232	-0.0117177620508	-0.00581161798103	0.000660840754917	-0.000427914059566	0.000329737933776	0.00700406494262	-0.00695827142793	0.00455280914259	-0.00434865629174	-0.000953189437021	-0.00640585794489	-0.00775636193543	0.00380304762291	-0.0025948800151	-0.0177557246568	-0.00731711759364	-0.00423543901469	-0.00812186418309	-0.00065846414644	-0.00802719220998	0.0101282147062	-0.0157496418492	-0.00664649391229	-0.000759099283583	0.00516268294801	0.00182866686216	0.00655498661161	-0.00650174968924	-0.00454787627517	-0.00303911684197	0.000886533835249	-0.00869340564429	-0.0103272753122	-0.00884943821301	-0.000142886290131	-0.00214025943475	0.00256866158621	0.00312716664871	-0.0144313183008	-0.012195353342	2.14016562911e-05	0.00304688315767	-0.0106112424914	-0.0110332117735	-0.00161450849159	-0.00111515487127	-0.00318984677821	-0.00412219247671	-0.000822869872457
K562_act_chr2	0.000424578762397	-0.00488671006361	-0.0145157003647	-0.00386938570735	0.00850207134619	0.0117217350222	-0.00287923783395	0.000695524810308	-0.00591391609822	-0.00859194085008	-0.00505802704196	0.000285994230996	-0.00179697275053	-0.00301376748606	-0.00487803825385	-0.00638163588451	-0.000936261642164	0.0048770726558	-0.00200943060503	0.00697905377918	-0.00775663292368	-0.00528873278725	-0.00179985210698	0.00466649535334	-0.00638161882221	-0.00166751246517	0.00172039736087	-0.000276272591004	0.000303652071163	-0.000378139348092	0.00583359427337	0.00561133127937	-0.00541818379086	0.00610620414517	-0.00641974128921	-0.0054179685657	0.00158920181321	0.00646715391025	0.00270050684056	-0.00174054670965	-0.0050377359034	0.00744327028717	-0.00182723175213	-0.0163664247741	-0.00152712789262	-0.00850470393845	-0.00796170410568	0.0035007134373	0.000100390323147	0.00217359313542	-0.00319635728262	0.00627518799973	-0.00301872845456	0.00136618203442	-0.000216009117686	0.0025731882918	-3.49438346396e-05	-0.0103808842059	-0.000570173469871	-0.00162662854907	-0.00306276132591	0.0040720737092	0.00489235231027	0.00628861110146	0.00829808899217	0.00805827122934	0.00868547657759	0.00517257673037	0.00889883863879	0.00625799708203	0.00304463805957	0.00391652449951	-0.00456775096298	0.00578126588854	0.0045062967992	0.0041880542069	-0.00229436463504	0.00960114100071	0.00810758183905	-0.0136332227381	-0.0142623159437	-0.00482195825934	-0.00175120354953	-0.00229780509611	-0.00895221299406	-0.00570814957664	0.00145236475547	-0.00180964189199	-0.00207757903385	0.00515690390556	-0.00777157323071	0.00368751285126	-0.00304529190642	0.00262655037781	-0.00490933237299	-0.00922371531826	0.00116778569312	-0.00244703532166	-0.0165631259857	-0.00616653384833	-0.00380095827833	-0.00598520272473	0.00253646033285	-0.012002332133	0.0051912896642	-0.0138793074195	-0.00458761267136	-0.00304703938067	0.00543827745576	-0.000635934832039	0.00622253005337	-0.00347008803262	-0.00255989027429	-0.00308319819787	-0.000846995923186	-0.00611750455419	-0.00852439814868	-0.00527804737535	-0.00190150155104	-0.00422557488606	0.00174542585658	0.00418912656905	-0.0140736005926	-0.0110617195737	-0.00386213307112	0.00107229192723	-0.0107123825497	-0.00921480404505	-0.00467999256261	-0.000406027125171	-0.0042863061201	-0.0018700099874	-0.00340525157298
K562_act_chr20	0.00404207356372	-0.00285231526486	-0.0111972859761	-0.00159851228909	0.00790420271636	0.0112941897328	-0.0021868252986	0.000704352152174	-0.00732978769416	-0.00718697284437	-0.00525634360421	-0.000962206981847	-0.000471088469122	-0.00203575723586	-0.00506339323295	-0.0026302839803	0.00231647037263	0.00317470896778	-0.00400422428415	0.00533347921082	-0.00828531069987	-0.0078251639506	-0.00113996204487	0.00473161163818	-0.00643922288619	-0.00277813276512	-0.00114158298522	0.000330329917534	0.0017540239014	-0.000678757269683	0.00454899860538	0.00254895030978	-0.00505634136245	0.00559336462125	-0.00563211787694	-0.00717655708529	0.000882867242962	0.00731633026201	0.00605767225299	-0.00326716185815	-0.00317906978944	0.00377455144995	-0.00226872172591	-0.0146661706924	-0.000452388147828	-0.00796328501696	-0.00667852045806	0.00187339096053	-0.00284204543621	0.00388141750668	-0.0057246253704	0.00398324485237	-0.00397602185266	-0.00105910218315	-0.00112941862315	0.0025598770634	-0.00339425470065	-0.00978748520752	-0.00256967907355	-0.000726676103929	-0.00384964155719	0.00506187195245	0.00710679950875	0.00443752940406	0.00801316091606	0.00687852078377	0.00805642465317	0.00453292562427	0.0119571025247	0.00160235366981	0.00448680449158	0.00302592564889	-0.00532409755554	0.00359094800629	0.00156829452577	0.00401482044802	-0.000280919612862	0.00951301910018	0.00775663950323	-0.0147357080741	-0.0147865353352	-0.00722176617001	0.00067903008568	-0.0037151573595	-0.0117026685929	-0.00537046768819	0.00115291735901	-0.000147074560234	-0.000275111825331	0.00607158569207	-0.00801655938455	0.0026135468813	-0.00487037565143	-0.000909116551211	-0.00794571950412	-0.0087774612175	0.00325518175988	-0.000260141012013	-0.0168200171771	-0.00743389636872	-0.00375849228796	-0.00283140907733	0.00168887394104	-0.00758416622813	0.00948786175657	-0.0153128356306	-0.00681978208117	-0.00142836369471	0.00652279887955	-0.000365142752775	0.00619696764726	-0.00528436525523	-0.0031970007294	-0.00422734449217	-2.87076240764e-05	-0.00767257261677	-0.0103151159891	-0.00749129545473	-0.00124022609252	-0.00136815007269	0.00304070578649	0.0049123197036	-0.0128646743246	-0.0111216630636	-0.00312580598992	0.00256244293875	-0.0101345468442	-0.00908479229025	-0.00299079042172	-0.00123456358872	-0.00590263761818	-0.00163746392071	-0.00119744117162
K562_act_chr21	0.00143823868375	-0.00377123037234	-0.0117351436352	-0.00124685320873	0.00882986792762	0.0119285083781	-0.00345545082347	0.000830577905849	-0.00714475736331	-0.00933650310194	-0.00518189301483	-7.16409936017e-05	-0.000779205313949	-0.00129058617217	-0.00568672968133	-0.00482612064478	0.00171028438583	0.00282427130801	-0.00299656415224	0.00715138851448	-0.00811461932472	-0.00796685936911	-0.00164678292157	0.00530274954024	-0.00489825438315	-0.00279412100568	0.000917494536742	0.000173436806904	-7.33935567182e-06	7.56233631035e-06	0.00457438594122	0.00327924906748	-0.00546469031795	0.0056771306215	-0.00494436766459	-0.00691787437852	0.00290237832308	0.00635970811811	0.00541006332383	-0.00346028894221	-0.00238601788406	0.00502638980126	-0.00198067191935	-0.0151583209156	-0.000706547484144	-0.00876043690175	-0.00656853958905	0.00329160185358	-0.000558877402865	0.0038692100017	-0.00401623986499	0.00425218034616	-0.00326832202357	-0.000503010689053	4.21331039367e-05	0.000880742144899	-0.00260348836217	-0.00822772805367	-0.00244585291209	-0.00120541543408	-0.00283033481063	0.00564450933356	0.00679682798014	0.0054954778368	0.00727478414235	0.007548528274	0.00833711890377	0.00463947245393	0.00986740329156	0.00370125934004	0.00270353403978	0.00420655416456	-0.0029935574786	0.00601932399604	0.00178024512267	0.00376781970167	-0.000890329072691	0.011600441296	0.0074936043672	-0.0145655463209	-0.0161252530923	-0.00769929892641	-0.000132100411958	-0.00356133120195	-0.0122273374762	-0.00474307985687	-0.000684176524169	7.15557204089e-06	0.000813481140217	0.00677607576286	-0.00893833735101	0.00374298811231	-0.00399893146596	0.000589696528176	-0.00656396937698	-0.0101795867152	0.00450036255828	-0.00140779121794	-0.0178857452183	-0.0075675572017	-0.00387243327898	-0.00332260867052	0.0013692364876	-0.00782449312048	0.00822760952111	-0.0145984370059	-0.00654625213565	-0.00272926918701	0.00554348496771	-0.0014958237682	0.00575183086807	-0.00470234510276	-0.00461126264357	-0.00409032376693	0.000391801790168	-0.00726620374722	-0.0101477656905	-0.00837939538245	-0.00199907407425	-0.00329031588522	0.00373320540508	0.00400179698467	-0.0136566501874	-0.0121954534252	-0.00348832273674	0.00275379621294	-0.0104053937248	-0.0109863061073	-0.00341150777056	-0.00147612999827	-0.00678255474624	-0.00277301238658	-0.00276164056109
K562_act_chr22	0.00119002853347	-0.00347000079976	-0.0114534425822	-0.000777391333526	0.00833274824812	0.0125409121476	-0.00288287585757	0.0010816476083	-0.00600193961635	-0.00855516913092	-0.0059141928708	-0.000127395024417	-0.00112124120969	-0.00104015130279	-0.00471341211471	-0.00336774767963	0.00179822782708	0.000900998217089	-0.00288748032996	0.0081712244556	-0.00727960160805	-0.00639994452883	-0.000842001034112	0.0063015940409	-0.00541433512107	-0.00306055279621	-0.000204768367526	0.00154625993001	0.00156450042408	-0.00262554894723	0.00444216758695	0.00431147775224	-0.00473146631	0.00597096957604	-0.00424285615641	-0.00701904240606	0.00228212128731	0.00651805985143	0.00559936457738	-0.00532716043321	-0.00182597903141	0.00566754021296	-0.000552171186876	-0.014820999946	-0.00224419429095	-0.00799255072259	-0.00772485600358	0.00307400919036	-0.000796998091817	0.00361703572084	-0.00437748364679	0.00434792995673	-0.00363568529839	-0.000746699328838	0.000751753849308	0.00117155735206	-0.00322238052633	-0.0105676323469	-0.00256691037815	-0.00145680129804	-0.00269323796204	0.00486549225215	0.00722769625177	0.00473425399745	0.00869439055458	0.00931847466104	0.00842460510221	0.00355250682625	0.00858030754033	0.00395718517588	0.00217949353627	0.00275971497384	-0.00564767450635	0.00456476601688	0.0021353385363	0.0048353074046	-0.00103175546179	0.0135194786202	0.0076001149555	-0.0145623856756	-0.0154637225969	-0.00760785670111	-0.000222633260048	-0.00345035068354	-0.0135154035961	-0.0054018798127	-0.00181900222581	-0.000368106957993	-0.00109327161249	0.00611167780028	-0.0091733570981	0.00453823934637	-0.00314153394794	-0.00113149729424	-0.0075047712804	-0.00883427649223	0.00337581352741	-0.000806463693443	-0.0167897676708	-0.0104605003085	-0.00439536450476	-0.00371706712093	0.00161098869764	-0.00742938700812	0.0105572291081	-0.0144847000001	-0.00628880445734	-0.00106476593635	0.00498025076605	-0.00247769496341	0.00438751457239	-0.00533495332334	-0.00371384095226	-0.00446636019546	0.0002282891496	-0.00777864211152	-0.0109186077377	-0.00709892555921	-0.00103737788715	-0.00500197875967	0.00423526903701	0.00436650806285	-0.0142938126763	-0.013003529652	-0.00314409092845	0.00198128532618	-0.0106540637953	-0.0108979681632	-0.00324883589778	-0.0004492650444	-0.00342938235548	-0.00228079597314	-0.00170209051762
K562_act_chr3	0.00285658340305	-0.00477434769337	-0.0127345120707	-0.000196229860175	0.0081652370469	0.00844561131139	-0.0041237730455	-0.00407984985035	-0.00659579809961	-0.0107857870689	-0.00479914625079	-0.000101349255112	-0.000598143227695	-0.000899777231488	-0.00572324965097	-0.00152512766069	0.00215400430044	0.00250731360861	-0.00157678498059	0.00610911281054	-0.00752671865538	-0.006860029973	-0.00188563737556	0.00351598590056	-0.00339864696562	-0.00272508061047	0.00173679516454	-0.00119033524141	0.00253114510742	-0.000761962057709	0.00566475618459	0.00435519834154	-0.00744736286018	0.00477082035381	-0.00444718592003	-0.00631322195255	0.00245821772081	0.00463061523713	0.00319510056083	-0.00215127739656	-0.00188475136543	0.00533010102656	7.48289398076e-05	-0.0128576499499	-0.000974592985338	-0.00853740641519	-0.00544381615317	0.00381514116188	-0.00105500133073	0.000519057429792	-0.00462427735086	0.00400372766371	-0.00152532446694	-0.00227387976478	0.000307254300618	0.0024296261157	-0.00336078371909	-0.0103845974285	-0.00392127185032	-0.00116680930398	-0.00216949127437	0.00504726021683	0.00915723164736	0.00645117222333	0.00815670201312	0.00823235117523	0.00661694091891	0.00567043428651	0.00947392365549	0.00317757634961	0.00239461885295	0.00389213316979	-0.00494391970645	0.00782411590624	0.00209710507619	0.00273083194853	-0.00180873118362	0.00982299136823	0.00724192075063	-0.0134043052726	-0.0170804837173	-0.00767360629233	-0.00108657666228	-0.00409012535855	-0.0119444268304	-0.00568687075062	-0.000630771707679	-0.00114860757213	0.00107512938574	0.00633864978819	-0.00881710713827	0.00422533530584	-0.00204417592471	-6.7194766807e-05	-0.00481968523043	-0.00786022501969	0.00364818580945	-0.00142961358973	-0.0172617676977	-0.0045370568183	-0.00435362694152	-0.00399083427465	4.24248597383e-05	-0.00660666216132	0.00810654422297	-0.0133317453053	-0.00711417371996	-0.00158241033855	0.00562684052981	-0.000125337908826	0.00584655717803	-0.00418218997784	-0.00526692006557	-0.00448287453798	-0.00135432046554	-0.00852686017157	-0.0101079049175	-0.00747967974653	-0.00516173328757	-0.00125526688351	0.00562432710364	0.00531944777233	-0.0126375754756	-0.0110299592125	-0.00298730991888	0.00475936380821	-0.00909482090351	-0.0103589850095	-0.00527350547886	-0.00281200829518	-0.00425813475751	-0.00206386376883	0.00143204525614
K562_act_chr4	0.000188736389953	-0.00347147087882	-0.0132440236329	-0.000585257604775	0.00781593523013	0.0115770965139	-0.000893669095558	-0.000157842738206	-0.00672598844054	-0.00821997179783	-0.00574897847967	0.000100647206478	-0.000845921544279	-0.000880864374186	-0.00501403513627	-0.00237864727239	0.00266676472665	0.00338181264394	-0.0031998415837	0.00564128893915	-0.00736971169721	-0.00816515459181	5.21918709165e-05	0.00576000149069	-0.00428439995591	-0.0011706841495	0.0034039664644	0.00200331561109	0.000946159989967	-4.89015478447e-05	0.00441661444866	0.00179948138997	-0.00568144186963	0.00638608090065	-0.00520561346491	-0.00803629308643	0.0010404147573	0.00698693740434	0.00488189234992	-0.00332814652766	-0.00156515658964	0.00361083266959	-0.00222244271242	-0.0143286748205	-0.000741037753238	-0.00786019019564	-0.00634814594999	0.0029995804467	-0.00191963758257	0.00325396539137	-0.00474002796949	0.00296205056086	-0.00293181645302	5.24036122759e-05	-0.000434496875904	0.0014919306177	-0.00296255756436	-0.00871682221221	-0.00317015227692	-0.00135575765532	-0.00470325846146	0.00519728447981	0.00601300412487	0.00341255442119	0.00649150476149	0.00813482519741	0.00759786734598	0.00553567170105	0.00716511190209	0.00371454719466	0.00362130019125	0.00418868134614	-0.0031070152541	0.00502043708091	0.000987560488737	0.00451254461629	-7.56590224056e-05	0.010390150793	0.00681291179823	-0.0159329564266	-0.0161619009609	-0.00835653638857	-0.00171801751929	-0.00296596871753	-0.0125320758214	-0.00634076181716	-0.000325295201065	-0.000670629955614	-0.00227972832805	0.00519490640049	-0.00846998746327	0.00372175973852	-0.00431543368585	-0.000424084876901	-0.0038294049396	-0.00901315824389	0.00373633317407	-0.00161806374866	-0.0155206048982	-0.00665108727554	-0.00488533021829	-0.00264681810014	0.00369269983861	-0.0080211490408	0.0113804680842	-0.0143962813916	-0.00589341614822	-0.00320144964502	0.00510564885516	-0.000377408980922	0.00494767758062	-0.00541306390534	-0.00509870577685	-0.00448243782858	0.000954870679712	-0.006027013852	-0.0100550009375	-0.00731857218719	-0.00132898426445	-0.00192122086263	0.00449385789167	0.00331123621284	-0.014695866837	-0.0109542634956	-0.00204810211693	0.00387319587998	-0.00959376223719	-0.00930262514637	-0.0026732110599	-0.00186227325503	-0.00362676233125	-0.00131226980759	-0.00211988583373
K562_act_chr5	0.000745001758171	-0.00349070635715	-0.0131391498947	-0.00107978486817	0.00783936244229	0.0113444477885	-0.00259906990176	1.3733465331e-05	-0.00742682659399	-0.00661828618559	-0.0061365324347	0.00133043844676	0.00060207968077	-0.00306752299343	-0.00691561130017	-0.00376499002008	0.00173842201861	0.0036350108861	-0.00350519212497	0.0087670996479	-0.0053822849246	-0.00854466798494	-0.00101257494711	0.00410348209591	-0.00619032095071	-0.00300268247266	-0.000303054638459	0.000230052052927	0.00093278314598	-0.00144616017	0.00537026818749	0.00481249577541	-0.00567333179467	0.00695191291565	-0.00528022146789	-0.00737166942912	-0.00017402570509	0.00642468265111	0.00455278170032	-0.00434396958037	-0.00219312092329	0.00471208538749	-0.00185668504035	-0.0156998350183	-0.0016785342577	-0.00993961476037	-0.00565882784951	0.00419041073923	0.000568765337906	0.0038993791034	-0.00305259157791	0.00402763813834	-0.00448850508941	0.00100603716635	0.000410945577105	-0.00135631572279	-0.00223005394918	-0.00883037059329	-0.000681271022254	-0.00202797150623	-0.00259839744734	0.00709776664923	0.0054015594372	0.00391067340553	0.00669991741779	0.00733697507903	0.00828958904721	0.00491127861733	0.0081414315072	0.00307187355873	0.00277157093203	0.00482138537407	-0.00437050875334	0.00371099628262	0.00157204257818	0.00421104576539	-0.00244547447844	0.0110005049504	0.00745328327855	-0.0149097917912	-0.0152868072848	-0.00936447446998	-0.00176604667159	-0.0030941846455	-0.0130408851682	-0.00520294106421	-0.00070400807181	0.000473979140943	0.000531248748101	0.00592232364865	-0.00868197614205	0.00201743669284	-0.00400401952115	-9.22166255721e-05	-0.0059117954503	-0.00877062142706	0.00454160004978	3.82764369058e-05	-0.0172165963448	-0.00666357994309	-0.00290380127292	-0.00213341741394	0.00179659786364	-0.00839683688657	0.00806285913977	-0.0139932588543	-0.00562730844133	-0.00109398514389	0.00442507869675	-0.00170849339265	0.00507949246799	-0.0046764422387	-0.00416864132847	-0.00164071022351	0.00181107516029	-0.00781003851048	-0.00988723932983	-0.00823579265269	-0.00169569063219	-0.002995689583	0.00456391801763	0.00542444184799	-0.0117024721419	-0.0101932021371	-0.00378917588585	0.00388565604622	-0.00990026965756	-0.0100963436027	-0.00142214074009	0.000120031433996	-0.00583012230436	-0.00302571101958	-0.00133313811673
K562_act_chr6	0.00233269132793	-0.00406734700964	-0.0122540592708	-0.000388050412203	0.0060151479255	0.0114929174024	-0.00186265690267	-0.000611825406806	-0.00708652703482	-0.00736794000633	-0.00432772281726	-0.000470195683276	-0.00140105118038	-0.000601153555692	-0.00487197422831	-0.00426172952783	0.00276498797146	0.00115916633468	-0.00131007756593	0.00702767070508	-0.00658949806318	-0.00658116997051	-0.00073806773771	0.00270133978835	-0.00573531143936	-0.0024764474137	0.00166211335732	-0.000600442574722	-0.000844889466352	-0.000932965732893	0.0034173267605	0.00293242808396	-0.00386297594506	0.00776327780139	-0.00403559435991	-0.0057835825867	0.00376597346357	0.00684593196207	0.00441572400523	-0.00241641378169	-0.00140933848973	0.00566486623846	-0.000443611034178	-0.0116140847623	-0.000630121863268	-0.00736647397065	-0.00541600612743	0.00227049127233	-0.00161867788099	0.00320809316597	-0.00448291464512	0.0047633902244	-0.00545722619417	-0.00239326452119	-0.00196328748747	0.00213457041387	-0.00262670448103	-0.00694314818468	-0.00219044177784	-0.000129763119048	-0.00445697723224	0.00530024106773	0.00538513722919	0.00533561326362	0.00674223830167	0.00781773097937	0.0102926767743	0.00524584162768	0.00811394179074	0.00266719793027	0.00232034548627	0.00256272085194	-0.00590410202981	0.00581559358301	0.00325050536147	0.00465829793412	0.000468685685178	0.0115971116139	0.00732327424567	-0.0143463862229	-0.0149956537123	-0.00652827653532	0.000501750383337	-0.00259818507387	-0.0125142813789	-0.00270465426132	-0.000701485076201	-0.0012690232865	-0.000748020452851	0.0052285026173	-0.00671400827436	0.00253445950424	-0.00472718199474	0.00116730521712	-0.00667672793718	-0.0107808734249	0.00463888749977	-0.000293349447587	-0.0166917005659	-0.00937177193951	-0.00273561375535	-0.0043381138969	-0.000237606818637	-0.00902687252295	0.00915662293281	-0.0169075896351	-0.00638934663509	-0.00119462999234	0.0069662916935	-0.00258161792104	0.00264523519675	-0.00460530555299	-0.00340420860918	-0.00391308906219	-0.000156722098093	-0.00734695633455	-0.00929102312637	-0.00752431717421	-0.00362237113334	-0.00287704473902	0.00251094243148	0.00362088038638	-0.0135057583263	-0.0109811399455	-0.00271967330026	0.00410251235938	-0.0088606764547	-0.00942269508626	-0.0025104850245	-0.000819568601686	-0.00382850675988	-0.00398780889347	-0.00240870966414
K562_act_chr7	0.000657248252289	-0.00276365295461	-0.0109284959006	-0.003184681111	0.00683430162586	0.0121490656483	-0.00461465841235	0.00160489241517	-0.00830012854166	-0.00764156829186	-0.00452497428332	0.000292156519279	0.000679057912071	0.000480781653486	-0.00808561085058	-0.00146487099617	0.00327630292933	0.00266261672828	-0.0029588421613	0.00536870355138	-0.00611939904991	-0.00681581036015	-0.000732306186319	0.0024088652473	-0.00508510412244	-0.00430501264965	-0.00086162245499	0.000343393977308	0.00210030787251	-0.00280123714288	0.00384096676263	0.00185495046026	-0.00614092550438	0.00528596602572	-0.00577740328482	-0.00850165931109	0.000464132794582	0.00710631177036	0.00665216142116	-0.00387448205923	-0.00119664286	0.00426753708625	-0.00206347399274	-0.015177910992	-0.000268657030069	-0.00792960217765	-0.00546159491724	0.0014184627977	-0.00232862345703	0.00381943931694	-0.00341697799517	0.00290000784181	-0.00491381217329	-0.000650678729209	-9.49762474879e-05	0.000487650127534	-0.00246017370522	-0.00759690469798	-0.00354880200715	-0.000381040427378	-0.00501150873859	0.00586049768935	0.00633213975102	0.00278137024601	0.00687793386	0.00595007335198	0.0070377316519	0.0068934568741	0.0102588899675	0.0032718151635	0.00129633666064	0.0020331487787	-0.00401870774798	0.00418655285751	0.00355211430245	0.00436918253472	-0.000954968877192	0.0113724301941	0.00672177532584	-0.0123522126379	-0.0128656025857	-0.00540164561745	-0.000677958296102	-0.00461146711587	-0.00941973141615	-0.00507110610887	0.000879408833726	0.00106384307378	-0.000940599555073	0.00468209547358	-0.00967239512408	0.00310187419994	-0.00546226671535	0.000231040383256	-0.00600557903359	-0.00676961315411	0.00224472190459	0.000992412825979	-0.0137771486939	-0.0084150314719	-0.0044529528458	-0.00251533980689	0.00124318922567	-0.00859752741172	0.00876513119914	-0.0130585834451	-0.0039829901264	-0.00122775204991	0.00633735232372	-0.00190260798297	0.00560147717353	-0.00500052899259	-0.00424694746635	-0.0027754212137	0.000982867922875	-0.00833203969409	-0.0102735862526	-0.00786230186348	-0.00184820408091	-0.0030753470646	0.00382593653264	0.00515060921485	-0.0127027870646	-0.00961472658062	-0.00387852810508	0.00172367547582	-0.0106036602638	-0.00955203326094	-0.000643711352792	-0.00249399489737	-0.00415007920296	-0.000396008195481	-0.0033453811641
K562_act_chr8	0.00261227858243	-0.00226534382073	-0.0132805639271	-0.00255203152263	0.00549438472965	0.0117789269025	-0.00212809158155	0.000733948074435	-0.00909147360951	-0.00787598037565	-0.00495708938055	0.00162325528434	0.000481859808859	0.000690017325987	-0.00520858762971	-0.00460772963341	0.00284073515284	0.0019321392638	-0.000868867201353	0.00727060473704	-0.00619886089435	-0.00696778995602	0.000110193274904	0.00673052754748	-0.0054212936557	-0.00292832478082	0.000246208869103	-0.000456272692332	0.0017295527749	-8.54776309022e-05	0.00271950939866	0.00142899589011	-0.00530389092236	0.00726208927403	-0.00459089471783	-0.00731628599501	0.00443744308415	0.00620868943696	0.00543864558673	-0.00473260792505	-0.00262109318496	0.00447237565839	-0.00181050012313	-0.0135392827905	-0.000213548348962	-0.00841022230438	-0.00711697371297	0.00168588167642	-0.00116227594576	0.00560615026336	-0.00354501209129	0.00403550758308	-0.00373928579192	-0.00209600685012	-0.000583561936382	0.000707450365227	-0.0028759110943	-0.0077290176576	-0.00186626018043	-0.000991263230833	-0.00584138127635	0.004276687746	0.00510491615745	0.00317006547034	0.00646443709774	0.0070089834055	0.00600668857444	0.00474256250482	0.00891954920412	0.00518188974502	0.00287307695856	0.00464961691019	-0.00437992005787	0.00567720378026	0.00236955534819	0.00258793581796	-0.00150106413212	0.0113917659035	0.00856265502264	-0.0146737424485	-0.0136435042625	-0.00671466254144	-0.0018183807317	-0.00310265579315	-0.0119597773998	-0.00434283373882	-0.000129476360163	-0.00082476771207	0.00258450177467	0.00701433438563	-0.0102797975741	0.00322822372842	-0.00336546825771	0.00052190127611	-0.00755789801352	-0.00969136269921	0.00495308120048	-0.000574976839579	-0.0169416888006	-0.00736766285844	-0.00450796604533	-0.003463602993	0.000199165549547	-0.00764119922045	0.0104701331259	-0.0155303765292	-0.00558861861394	-0.00355100017743	0.00575660651869	-0.00164349888684	0.00623656662468	-0.0041438370605	-0.00643229470229	-0.00389370544668	0.00111765645604	-0.00917188216352	-0.0114413917537	-0.00876073681902	-0.00119735628594	-0.0028360940266	0.00329228541991	0.0039812579897	-0.0134855902268	-0.0137093543508	-0.00317206397098	0.00287420999534	-0.010221661414	-0.00896128503722	-0.0029771525293	-0.000981551292141	-0.00337463933487	-0.00206153209939	-0.00285789824815
K562_act_chr9	0.00115800894051	-0.0045608920516	-0.0115449305651	-0.0006168720461	0.00916174544883	0.0104362415049	-0.00413723802082	0.000178317520952	-0.00939797787713	-0.00986447758418	-0.00522303839807	-0.00134224678618	-0.000688509479619	-0.0016198700289	-0.00485826075505	-0.00323840989698	0.00251565929296	0.00260747553525	-0.00269686113431	0.00724830796388	-0.00564335060066	-0.00672448067826	-0.000721539555743	0.0058437884669	-0.00583191331714	-0.00292255474744	-0.000977318996297	0.000507549954174	0.00119145008341	-0.00163831463865	0.00362140497094	0.00327425838971	-0.00341233198635	0.00578546586702	-0.0039030403439	-0.00626296538782	0.00301385978265	0.00643437521998	0.00610608833522	-0.00337997477253	-0.00223986284104	0.00383269435887	-0.000694507948776	-0.0162447320814	-0.00143889580469	-0.00988430368229	-0.00686127194951	0.00353505570801	0.00120989878252	0.00333106202914	-0.00705243515237	0.00183049049922	-0.00334956163307	-0.000618723139658	0.00108435260476	-0.000638130105615	-0.00221009310663	-0.00835090551618	-0.00330950527501	-0.00293147796788	-0.0031729854035	0.00525444591595	0.00502998820745	0.004108070114	0.00928105172663	0.00829471348868	0.00929500137577	0.00580387645221	0.00972827601009	0.00504327532672	0.00279866016325	0.00500806333281	-0.00208863456097	0.00644889574143	0.000479799332049	0.00409771481492	0.000622160384066	0.00960476772438	0.00937097646096	-0.0140571404056	-0.013581402522	-0.00834086967078	0.000835459675992	-0.00326963918287	-0.0103113033623	-0.00464390450962	0.00198151963732	-0.00141956377123	0.00192848190398	0.00399848921466	-0.00905358221236	0.00198243361818	-0.00464071874755	-0.00233306244401	-0.00580010088494	-0.0101047283032	0.00252953940389	-0.000279017541402	-0.0167143097368	-0.00765576707968	-0.00490106539953	-0.00318661750053	0.0024976774611	-0.00857006814395	0.00873260305806	-0.0138041398394	-0.00711587424551	-0.00194707688794	0.0046088927436	-0.00171632761801	0.00492419194457	-0.00486640974487	-0.00418371171099	-0.00339324414113	0.00128908134026	-0.00625133064632	-0.0108092893857	-0.00802380574385	-0.00145522784308	-0.00261689286885	0.00154353063527	0.00435157029538	-0.013650290003	-0.0108647834481	-0.00150872629949	0.00373081199208	-0.0088822993263	-0.0103562616035	-0.00398402302333	-0.000827468739648	-0.00561251796575	-0.00109903145489	-0.00144106374849
K562_act_chrX	0.00167703159189	-0.00304468083819	-0.0122172186567	-0.00381627028793	0.00790818235765	0.0121532791512	-0.00285275749821	0.00184946059726	-0.00698264115794	-0.00841449662596	-0.00461958667411	0.000350602512603	0.000772886266009	-0.000854749588721	-0.00606518170616	-0.00321817517874	0.00296190038905	0.00264753079965	-0.00504693316407	0.00722549045295	-0.00767594350936	-0.00758100168082	-0.00229776416515	0.0054980725714	-0.00605580422174	-0.00140220580625	-7.33089086232e-05	0.000452185426172	0.00142266435685	-0.000338615611274	0.00540487898933	0.00274710631903	-0.00603242696679	0.00517844646604	-0.00408407066125	-0.00600514526761	0.00359118000254	0.00676785255931	0.00721275160927	-0.00279933052776	-0.00273975034279	0.00489491885999	-0.00130454029128	-0.012302339122	-0.00221634920589	-0.00885883737938	-0.00469129714473	0.00282562693556	-0.00168447860834	0.00337485213999	-0.00454144624925	0.0029962619051	-0.00337995716115	-5.10978006659e-05	-0.000164933817498	0.000579006714055	-0.00361639236004	-0.0085502197692	-0.00255540372815	-0.00250621265492	-0.00391624941647	0.00643748700928	0.0079155405328	0.00350664101797	0.00736565516237	0.0085928500031	0.00734394993233	0.00441465186137	0.00958517229807	0.00345046975869	0.00328458258844	0.00285700279952	-0.00565906849322	0.00573621390763	0.00195837088653	0.00463654898149	0.00095518362103	0.00825129971298	0.00790136530088	-0.0163909630075	-0.0160227832202	-0.00641289362474	-0.00130626663124	-0.00372918347971	-0.0106165108222	-0.00637588544124	0.000729822403112	-0.00137250644138	0.000202194911663	0.00423280160622	-0.00895427085263	0.000931885627035	-0.00271363398431	-0.00146471282235	-0.00630833470095	-0.0114624845301	0.00352843718672	-0.00058742808593	-0.0180261505925	-0.00953838842311	-0.00273972156004	-0.00397155711723	0.00117425174917	-0.00905661500877	0.0109720887173	-0.0148108773982	-0.00638878009227	-0.00415753236719	0.00440166668355	-0.000780704370592	0.00529659924423	-0.00385580811102	-0.00271782647599	-0.00357774596401	-5.94245572367e-05	-0.00916708015839	-0.0103342036575	-0.00812539800329	6.0275135326e-05	-0.00108523385261	0.00385919358279	0.00446293486922	-0.012295259886	-0.011152510679	-0.0034659280513	0.00242889879547	-0.00904018735855	-0.0126192998403	-0.00381064716807	-0.000689947722711	-0.00454502391895	-0.00164548626467	-0.00108070956195
